<GAP_2020_4_27_60_2_50_5_436>
<Potential label="GAP_2020_4_27_60_2_50_5_436" init_args="Sum init_args_pot1={IP Glue} init_args_pot2={IP GAP label=GAP_2020_4_27_60_2_50_5_436}"/>
<quip>
  <Glue_params n_types="1">
  <per_type_data atomic_num="6" type="1">
    <!-- C -->
    <density num_points="2" density_y1="-0.4144" density_yn="0.0">
      <point a="0.821917808219178" rho="0.00001"/>
      <point a="1.027397260273973" rho="0.00002"/>
    </density>
    <potential_density num_points="2">
      <point rho="0.00001" E="0.0"/>
      <point rho="0.00002" E="0.0"/>
    </potential_density>
  </per_type_data>
  <per_pair_data type1="1" type2="1">
    <potential_pair num_points="18" y1="0.0" yn="0.0">
      <point r="3.0"  E="0.0"/>
      <point r="4.0"  E="-0.00490249"/>
      <point r="4.1"  E="-0.0042274"/>
      <point r="4.2"  E="-0.00365831"/>
      <point r="4.3"  E="-0.00317662"/>
      <point r="4.4"  E="-0.00276733"/>
      <point r="4.5"  E="-0.00241825"/>
      <point r="5.0"  E="-0.00128516"/>
      <point r="5.5"  E="-0.000725438"/>
      <point r="6.0"  E="-0.000430397"/>
      <point r="6.5"  E="-0.000266254"/>
      <point r="7.0"  E="-0.000170682"/>
      <point r="7.5"  E="-0.000112826"/>
      <point r="8.0"  E="-7.66013e-5"/>
      <point r="8.5"  E="-5.3243e-5"/>
      <point r="9.0"  E="-3.77852e-5"/>
      <point r="9.5"  E="-2.73171e-5"/>
      <point r="10.0" E="0.0"/>
    </potential_pair>
 </per_pair_data>
</Glue_params>
</quip>
<GAP_params label="GAP_2020_4_27_60_2_50_5_436" gap_version="1575905725">
  <GAP_data do_core="T">
    <e0 Z="1" value=".00000000000000000E+000"/>
    <e0 Z="2" value=".00000000000000000E+000"/>
    <e0 Z="3" value=".00000000000000000E+000"/>
    <e0 Z="4" value=".00000000000000000E+000"/>
    <e0 Z="5" value=".00000000000000000E+000"/>
    <e0 Z="6" value=".94664775000000001"/>
    <e0 Z="7" value=".00000000000000000E+000"/>
    <e0 Z="8" value=".00000000000000000E+000"/>
    <e0 Z="9" value=".00000000000000000E+000"/>
    <e0 Z="10" value=".00000000000000000E+000"/>
    <e0 Z="11" value=".00000000000000000E+000"/>
    <e0 Z="12" value=".00000000000000000E+000"/>
    <e0 Z="13" value=".00000000000000000E+000"/>
    <e0 Z="14" value=".00000000000000000E+000"/>
    <e0 Z="15" value=".00000000000000000E+000"/>
    <e0 Z="16" value=".00000000000000000E+000"/>
    <e0 Z="17" value=".00000000000000000E+000"/>
    <e0 Z="18" value=".00000000000000000E+000"/>
    <e0 Z="19" value=".00000000000000000E+000"/>
    <e0 Z="20" value=".00000000000000000E+000"/>
    <e0 Z="21" value=".00000000000000000E+000"/>
    <e0 Z="22" value=".00000000000000000E+000"/>
    <e0 Z="23" value=".00000000000000000E+000"/>
    <e0 Z="24" value=".00000000000000000E+000"/>
    <e0 Z="25" value=".00000000000000000E+000"/>
    <e0 Z="26" value=".00000000000000000E+000"/>
    <e0 Z="27" value=".00000000000000000E+000"/>
    <e0 Z="28" value=".00000000000000000E+000"/>
    <e0 Z="29" value=".00000000000000000E+000"/>
    <e0 Z="30" value=".00000000000000000E+000"/>
    <e0 Z="31" value=".00000000000000000E+000"/>
    <e0 Z="32" value=".00000000000000000E+000"/>
    <e0 Z="33" value=".00000000000000000E+000"/>
    <e0 Z="34" value=".00000000000000000E+000"/>
    <e0 Z="35" value=".00000000000000000E+000"/>
    <e0 Z="36" value=".00000000000000000E+000"/>
    <e0 Z="37" value=".00000000000000000E+000"/>
    <e0 Z="38" value=".00000000000000000E+000"/>
    <e0 Z="39" value=".00000000000000000E+000"/>
    <e0 Z="40" value=".00000000000000000E+000"/>
    <e0 Z="41" value=".00000000000000000E+000"/>
    <e0 Z="42" value=".00000000000000000E+000"/>
    <e0 Z="43" value=".00000000000000000E+000"/>
    <e0 Z="44" value=".00000000000000000E+000"/>
    <e0 Z="45" value=".00000000000000000E+000"/>
    <e0 Z="46" value=".00000000000000000E+000"/>
    <e0 Z="47" value=".00000000000000000E+000"/>
    <e0 Z="48" value=".00000000000000000E+000"/>
    <e0 Z="49" value=".00000000000000000E+000"/>
    <e0 Z="50" value=".00000000000000000E+000"/>
    <e0 Z="51" value=".00000000000000000E+000"/>
    <e0 Z="52" value=".00000000000000000E+000"/>
    <e0 Z="53" value=".00000000000000000E+000"/>
    <e0 Z="54" value=".00000000000000000E+000"/>
    <e0 Z="55" value=".00000000000000000E+000"/>
    <e0 Z="56" value=".00000000000000000E+000"/>
    <e0 Z="57" value=".00000000000000000E+000"/>
    <e0 Z="58" value=".00000000000000000E+000"/>
    <e0 Z="59" value=".00000000000000000E+000"/>
    <e0 Z="60" value=".00000000000000000E+000"/>
    <e0 Z="61" value=".00000000000000000E+000"/>
    <e0 Z="62" value=".00000000000000000E+000"/>
    <e0 Z="63" value=".00000000000000000E+000"/>
    <e0 Z="64" value=".00000000000000000E+000"/>
    <e0 Z="65" value=".00000000000000000E+000"/>
    <e0 Z="66" value=".00000000000000000E+000"/>
    <e0 Z="67" value=".00000000000000000E+000"/>
    <e0 Z="68" value=".00000000000000000E+000"/>
    <e0 Z="69" value=".00000000000000000E+000"/>
    <e0 Z="70" value=".00000000000000000E+000"/>
    <e0 Z="71" value=".00000000000000000E+000"/>
    <e0 Z="72" value=".00000000000000000E+000"/>
    <e0 Z="73" value=".00000000000000000E+000"/>
    <e0 Z="74" value=".00000000000000000E+000"/>
    <e0 Z="75" value=".00000000000000000E+000"/>
    <e0 Z="76" value=".00000000000000000E+000"/>
    <e0 Z="77" value=".00000000000000000E+000"/>
    <e0 Z="78" value=".00000000000000000E+000"/>
    <e0 Z="79" value=".00000000000000000E+000"/>
    <e0 Z="80" value=".00000000000000000E+000"/>
    <e0 Z="81" value=".00000000000000000E+000"/>
    <e0 Z="82" value=".00000000000000000E+000"/>
    <e0 Z="83" value=".00000000000000000E+000"/>
    <e0 Z="84" value=".00000000000000000E+000"/>
    <e0 Z="85" value=".00000000000000000E+000"/>
    <e0 Z="86" value=".00000000000000000E+000"/>
    <e0 Z="87" value=".00000000000000000E+000"/>
    <e0 Z="88" value=".00000000000000000E+000"/>
    <e0 Z="89" value=".00000000000000000E+000"/>
    <e0 Z="90" value=".00000000000000000E+000"/>
    <e0 Z="91" value=".00000000000000000E+000"/>
    <e0 Z="92" value=".00000000000000000E+000"/>
    <e0 Z="93" value=".00000000000000000E+000"/>
    <e0 Z="94" value=".00000000000000000E+000"/>
    <e0 Z="95" value=".00000000000000000E+000"/>
    <e0 Z="96" value=".00000000000000000E+000"/>
    <e0 Z="97" value=".00000000000000000E+000"/>
    <e0 Z="98" value=".00000000000000000E+000"/>
    <e0 Z="99" value=".00000000000000000E+000"/>
    <e0 Z="100" value=".00000000000000000E+000"/>
    <e0 Z="101" value=".00000000000000000E+000"/>
    <e0 Z="102" value=".00000000000000000E+000"/>
    <e0 Z="103" value=".00000000000000000E+000"/>
    <e0 Z="104" value=".00000000000000000E+000"/>
    <e0 Z="105" value=".00000000000000000E+000"/>
    <e0 Z="106" value=".00000000000000000E+000"/>
    <e0 Z="107" value=".00000000000000000E+000"/>
    <e0 Z="108" value=".00000000000000000E+000"/>
    <e0 Z="109" value=".00000000000000000E+000"/>
    <e0 Z="110" value=".00000000000000000E+000"/>
    <e0 Z="111" value=".00000000000000000E+000"/>
    <e0 Z="112" value=".00000000000000000E+000"/>
    <e0 Z="113" value=".00000000000000000E+000"/>
    <e0 Z="114" value=".00000000000000000E+000"/>
    <e0 Z="115" value=".00000000000000000E+000"/>
    <e0 Z="116" value=".00000000000000000E+000"/>
    <e0 Z="117" value=".00000000000000000E+000"/>
    <e0 Z="118" value=".00000000000000000E+000"/>
  </GAP_data>
  <gpSparse label="GAP_2020_4_27_60_2_50_5_436" n_coordinate="3">
    <gpCoordinates label="GAP_2020_4_27_60_2_50_5_4361" dimensions="1" signal_variance="2.0000000000000000" signal_mean=".00000000000000000E+000" sparsified="T" n_permutations="1" covariance_type="1" n_sparseX="15" sparseX_filename="Carbon_GAP_20.xml.sparseX.GAP_2020_4_27_60_2_50_5_4361" sparseX_md5sum="adc0cf42827c2c06c0ba56c77a9470ee">
      <theta>  0.10000000000000000E+001 </theta>
      <descriptor>distance_2b n_sparse=15 theta_uniform=1.0 sparse_method=uniform covariance_type=ard_se cutoff=4.5 delta=2.0</descriptor>
      <permutation i="1">1  </permutation>
      <sparseX i="1" alpha="-15743.957398124077" sparseCutoff=".31856859409093630"/>
      <sparseX i="2" alpha="-1416998.1092851718" sparseCutoff="1.0000000000000000"/>
      <sparseX i="3" alpha="780154.97911388264" sparseCutoff="1.0000000000000000"/>
      <sparseX i="4" alpha="189910.16367492385" sparseCutoff="1.0000000000000000"/>
      <sparseX i="5" alpha="455607.12595572940" sparseCutoff="1.0000000000000000"/>
      <sparseX i="6" alpha="-1216739.0020221898" sparseCutoff="1.0000000000000000"/>
      <sparseX i="7" alpha="-939993.49605624133" sparseCutoff="1.0000000000000000"/>
      <sparseX i="8" alpha="1544365.5595044610" sparseCutoff="1.0000000000000000"/>
      <sparseX i="9" alpha="-255568.66096629357" sparseCutoff=".91608429308653316E-002"/>
      <sparseX i="10" alpha="-1829512.9900201941" sparseCutoff="1.0000000000000000"/>
      <sparseX i="11" alpha="66678.043830009265" sparseCutoff="1.0000000000000000"/>
      <sparseX i="12" alpha="842379.72319843911" sparseCutoff="1.0000000000000000"/>
      <sparseX i="13" alpha="1941442.3348625402" sparseCutoff="1.0000000000000000"/>
      <sparseX i="14" alpha="-487577.46234058752" sparseCutoff="1.0000000000000000"/>
      <sparseX i="15" alpha="77679.814814527563" sparseCutoff="1.0000000000000000"/>
    </gpCoordinates>
    <gpCoordinates label="GAP_2020_4_27_60_2_50_5_4362" dimensions="3" signal_variance=".50000000000000003E-001" signal_mean=".00000000000000000E+000" sparsified="T" n_permutations="1" covariance_type="1" n_sparseX="200" sparseX_filename="Carbon_GAP_20.xml.sparseX.GAP_2020_4_27_60_2_50_5_4362" sparseX_md5sum="3235a3f6b83620821d3f732c742803fd">
      <theta>  0.10000000000000000E+001  0.10000000000000000E+001  0.10000000000000000E+001 </theta>
      <descriptor>angle_3b n_sparse=200 theta_uniform=1.0 sparse_method=uniform covariance_type=ard_se cutoff=2.5 delta=0.05</descriptor>
      <permutation i="1">1 2 3  </permutation>
      <sparseX i="1" alpha="-228962.41398185640" sparseCutoff=".17843748268240483E-002"/>
      <sparseX i="2" alpha="47707.859397253240" sparseCutoff=".32962980008201373E-001"/>
      <sparseX i="3" alpha="200897.00758976911" sparseCutoff=".20346156849580616"/>
      <sparseX i="4" alpha="8894.6529850307325" sparseCutoff=".20346156849580616"/>
      <sparseX i="5" alpha="1098956.3175616255" sparseCutoff=".87700829204058195E-002"/>
      <sparseX i="6" alpha="-143944.99158279516" sparseCutoff=".87700829204058195E-002"/>
      <sparseX i="7" alpha="432227.84966918273" sparseCutoff=".16201084190934478"/>
      <sparseX i="8" alpha="-827291.47998801572" sparseCutoff=".10489647957751622E-002"/>
      <sparseX i="9" alpha="169364.07363823228" sparseCutoff=".11960716965793788"/>
      <sparseX i="10" alpha="485984.69273839175" sparseCutoff="1.0000000000000000"/>
      <sparseX i="11" alpha="918414.09095888981" sparseCutoff="1.0000000000000000"/>
      <sparseX i="12" alpha="480893.49602231331" sparseCutoff=".13389228440568623"/>
      <sparseX i="13" alpha="-530260.10875456734" sparseCutoff=".20346156849580616"/>
      <sparseX i="14" alpha="-437087.83502063091" sparseCutoff="1.0000000000000000"/>
      <sparseX i="15" alpha="-1618802.1303115000" sparseCutoff="1.0000000000000000"/>
      <sparseX i="16" alpha="1447745.6960243112" sparseCutoff=".36121111417737994E-001"/>
      <sparseX i="17" alpha="39854.321770278621" sparseCutoff=".55415673519627240"/>
      <sparseX i="18" alpha="-1966933.6805609679" sparseCutoff=".20016757174914485E-001"/>
      <sparseX i="19" alpha="1300827.9039405873" sparseCutoff=".11874768000677903"/>
      <sparseX i="20" alpha="64532.393604929479" sparseCutoff=".55415673519627240"/>
      <sparseX i="21" alpha="-766085.57443472720" sparseCutoff="1.0000000000000000"/>
      <sparseX i="22" alpha="3137005.2862022757" sparseCutoff="1.0000000000000000"/>
      <sparseX i="23" alpha="-471855.08545430901" sparseCutoff=".21428536813636440"/>
      <sparseX i="24" alpha="729521.30629438802" sparseCutoff=".36121111417737994E-001"/>
      <sparseX i="25" alpha="-301715.72597348981" sparseCutoff=".21428536813636440"/>
      <sparseX i="26" alpha="22236.778560563700" sparseCutoff=".35156662972110332E-003"/>
      <sparseX i="27" alpha="407023.62287603365" sparseCutoff=".40908662161031617E-002"/>
      <sparseX i="28" alpha="-913205.25779824983" sparseCutoff=".47514388987566651E-001"/>
      <sparseX i="29" alpha="-595842.75720174029" sparseCutoff=".24967673476860075E-001"/>
      <sparseX i="30" alpha="-1504258.9068737121" sparseCutoff=".60726885166372067E-002"/>
      <sparseX i="31" alpha="1796011.6541062791" sparseCutoff="1.0000000000000000"/>
      <sparseX i="32" alpha="2671491.9923034240" sparseCutoff=".24967673476860075E-001"/>
      <sparseX i="33" alpha="-1147841.7802698845" sparseCutoff=".15844234478483421"/>
      <sparseX i="34" alpha="36856.334854346496" sparseCutoff=".81039427675624248E-001"/>
      <sparseX i="35" alpha="475599.80264856655" sparseCutoff=".94309768549691309"/>
      <sparseX i="36" alpha="-2111987.7174714566" sparseCutoff=".94309768549691309"/>
      <sparseX i="37" alpha="-644977.76792285172" sparseCutoff=".35487831614880311E-001"/>
      <sparseX i="38" alpha="-13601.402419030839" sparseCutoff=".19535396002016836"/>
      <sparseX i="39" alpha="-41641.576757793089" sparseCutoff=".76717906062467400"/>
      <sparseX i="40" alpha="1513442.3295631348" sparseCutoff=".79279956703362287"/>
      <sparseX i="41" alpha="1270337.4680494431" sparseCutoff=".96768350100793854"/>
      <sparseX i="42" alpha="825580.76929137623" sparseCutoff=".23541412131618816"/>
      <sparseX i="43" alpha="-142126.81313494031" sparseCutoff=".22847645849295795"/>
      <sparseX i="44" alpha="1360563.5598455428" sparseCutoff=".47915255600853762"/>
      <sparseX i="45" alpha="521033.16037009959" sparseCutoff=".25214833276120409E-002"/>
      <sparseX i="46" alpha="3702.8379542984376" sparseCutoff=".24885585483913619E-004"/>
      <sparseX i="47" alpha="163598.08685661494" sparseCutoff=".69652570912744427"/>
      <sparseX i="48" alpha="351609.45383084484" sparseCutoff=".13657417404436251"/>
      <sparseX i="49" alpha="-1129718.8150992396" sparseCutoff="1.0000000000000000"/>
      <sparseX i="50" alpha="-222565.74314525491" sparseCutoff=".32273835855853306E-002"/>
      <sparseX i="51" alpha="-146912.63343942509" sparseCutoff=".33305221475027302"/>
      <sparseX i="52" alpha="-191598.02449178687" sparseCutoff=".71369556169753900"/>
      <sparseX i="53" alpha="348635.09393219074" sparseCutoff="1.0000000000000000"/>
      <sparseX i="54" alpha="-344647.03431904037" sparseCutoff=".60968459145231668"/>
      <sparseX i="55" alpha="-200223.43924368959" sparseCutoff=".75925928965942568"/>
      <sparseX i="56" alpha="-118783.32602666429" sparseCutoff=".16458703921484186E-002"/>
      <sparseX i="57" alpha="6237.1899136309894" sparseCutoff=".71466514026174988E-004"/>
      <sparseX i="58" alpha="195868.37786190049" sparseCutoff=".47087244650991789E-002"/>
      <sparseX i="59" alpha="120871.77095515623" sparseCutoff=".84670037200768045E-003"/>
      <sparseX i="60" alpha="-24780.582693034867" sparseCutoff=".13985360369883626"/>
      <sparseX i="61" alpha="-644128.08049245854" sparseCutoff="1.0000000000000000"/>
      <sparseX i="62" alpha="-7297.5158676625233" sparseCutoff="1.0000000000000000"/>
      <sparseX i="63" alpha="-175965.04886851486" sparseCutoff=".20165024901573453"/>
      <sparseX i="64" alpha="303.88874262501417" sparseCutoff=".84658806696613631E-005"/>
      <sparseX i="65" alpha="103.10982354747595" sparseCutoff=".43106398807113422E-005"/>
      <sparseX i="66" alpha="17108.151954222125" sparseCutoff=".88382057791130952E-003"/>
      <sparseX i="67" alpha="-1198791.0627291142" sparseCutoff=".15801858681467168"/>
      <sparseX i="68" alpha="76396.500638026773" sparseCutoff=".11188232174775053"/>
      <sparseX i="69" alpha="736730.53272319573" sparseCutoff=".14348732101580502"/>
      <sparseX i="70" alpha="1844329.5443463442" sparseCutoff=".44175955757061458E-002"/>
      <sparseX i="71" alpha="172685.98647439212" sparseCutoff="1.0000000000000000"/>
      <sparseX i="72" alpha="-70647.697779657829" sparseCutoff=".19463315069876030E-001"/>
      <sparseX i="73" alpha="-136479.33067067305" sparseCutoff=".14959204023247702"/>
      <sparseX i="74" alpha="-1606829.3791475478" sparseCutoff=".27752661260459738"/>
      <sparseX i="75" alpha="407161.75944393105" sparseCutoff="1.0000000000000000"/>
      <sparseX i="76" alpha="196619.14856045420" sparseCutoff="1.0000000000000000"/>
      <sparseX i="77" alpha="-662264.29410107399" sparseCutoff="1.0000000000000000"/>
      <sparseX i="78" alpha="-183138.94373428629" sparseCutoff="1.0000000000000000"/>
      <sparseX i="79" alpha="13808.947166034062" sparseCutoff=".17452503794940233E-003"/>
      <sparseX i="80" alpha="-107148.85485230619" sparseCutoff=".25863138348847092"/>
      <sparseX i="81" alpha="1337596.0839374149" sparseCutoff=".16603580025013998E-001"/>
      <sparseX i="82" alpha="-434679.64689994697" sparseCutoff=".18768312652590102"/>
      <sparseX i="83" alpha="-560014.13944620022" sparseCutoff=".59662926642811752E-003"/>
      <sparseX i="84" alpha="-1080521.4845357956" sparseCutoff="1.0000000000000000"/>
      <sparseX i="85" alpha="-8714.7274415264692" sparseCutoff=".33518524514394164E-002"/>
      <sparseX i="86" alpha="841216.68828217487" sparseCutoff=".57380921933994911E-002"/>
      <sparseX i="87" alpha="6768.1320637554736" sparseCutoff="1.0000000000000000"/>
      <sparseX i="88" alpha="-367867.64182972512" sparseCutoff="1.0000000000000000"/>
      <sparseX i="89" alpha="-111995.43603475478" sparseCutoff="1.0000000000000000"/>
      <sparseX i="90" alpha="83509.209853103283" sparseCutoff="1.0000000000000000"/>
      <sparseX i="91" alpha="-2432414.6833432745" sparseCutoff="1.0000000000000000"/>
      <sparseX i="92" alpha="1300701.0808032623" sparseCutoff=".53892246033178104E-002"/>
      <sparseX i="93" alpha="8776.0646509400594" sparseCutoff=".24671904528705824E-004"/>
      <sparseX i="94" alpha="961.24680963863273" sparseCutoff=".27468469893543457E-004"/>
      <sparseX i="95" alpha="84898.763563392553" sparseCutoff=".10923485031473223E-002"/>
      <sparseX i="96" alpha="1856898.2199052454" sparseCutoff="1.0000000000000000"/>
      <sparseX i="97" alpha="-225114.18836712011" sparseCutoff=".37937301161220238E-001"/>
      <sparseX i="98" alpha="-1017744.8769280995" sparseCutoff="1.0000000000000000"/>
      <sparseX i="99" alpha="-435183.85709409532" sparseCutoff=".60701341206480519E-002"/>
      <sparseX i="100" alpha="-14925.878955221528" sparseCutoff=".24218382394017252"/>
      <sparseX i="101" alpha="116681.00724565228" sparseCutoff=".66080045699556944E-002"/>
      <sparseX i="102" alpha="-95521.748575092060" sparseCutoff="1.0000000000000000"/>
      <sparseX i="103" alpha="-264175.21449781302" sparseCutoff=".30019587204621612E-002"/>
      <sparseX i="104" alpha="-745113.13221526472" sparseCutoff=".67081118644371884E-001"/>
      <sparseX i="105" alpha="37494.398957097175" sparseCutoff=".60204225542424372"/>
      <sparseX i="106" alpha="1308420.5905142983" sparseCutoff=".66232091870363563"/>
      <sparseX i="107" alpha="-2426459.5351931932" sparseCutoff=".56160745381834232"/>
      <sparseX i="108" alpha="34288.748881051411" sparseCutoff=".95772617345057931E-004"/>
      <sparseX i="109" alpha="44242.653266377929" sparseCutoff=".12425163152562924E-003"/>
      <sparseX i="110" alpha="15314.186350530861" sparseCutoff=".12425163152562924E-003"/>
      <sparseX i="111" alpha="255984.15898278361" sparseCutoff=".27486599143336510E-002"/>
      <sparseX i="112" alpha="401583.75319984707" sparseCutoff=".81357647144344250E-001"/>
      <sparseX i="113" alpha="26791.161305998310" sparseCutoff=".13041155249486347E-002"/>
      <sparseX i="114" alpha="-637774.57951470837" sparseCutoff=".95221138271944650"/>
      <sparseX i="115" alpha="14.935932776125432" sparseCutoff=".12191007331407988E-006"/>
      <sparseX i="116" alpha="-515347.77610908041" sparseCutoff="1.0000000000000000"/>
      <sparseX i="117" alpha="-339283.06850104453" sparseCutoff=".66104661463754488E-002"/>
      <sparseX i="118" alpha="-789470.68028549384" sparseCutoff=".13071790389245108E-001"/>
      <sparseX i="119" alpha="1854046.8914847011" sparseCutoff=".39939503761743322E-001"/>
      <sparseX i="120" alpha="-985946.24014018627" sparseCutoff="1.0000000000000000"/>
      <sparseX i="121" alpha="2148271.5144414669" sparseCutoff=".75625825314991291E-001"/>
      <sparseX i="122" alpha="-292805.78955883515" sparseCutoff="1.0000000000000000"/>
      <sparseX i="123" alpha="251742.49466368600" sparseCutoff=".35249870485792312E-002"/>
      <sparseX i="124" alpha="135625.70640863926" sparseCutoff="1.0000000000000000"/>
      <sparseX i="125" alpha="518769.70800216112" sparseCutoff=".90515735106617534E-001"/>
      <sparseX i="126" alpha="8954.7829716109263" sparseCutoff=".20909761194221610E-002"/>
      <sparseX i="127" alpha="58449.425407519790" sparseCutoff=".66035046912624129E-001"/>
      <sparseX i="128" alpha="783380.53595086723" sparseCutoff=".57994590916038391"/>
      <sparseX i="129" alpha="2144411.3313252032" sparseCutoff=".63623571990067995"/>
      <sparseX i="130" alpha="495598.74994236900" sparseCutoff="1.0000000000000000"/>
      <sparseX i="131" alpha="-278125.83617199067" sparseCutoff=".65162389595673664E-001"/>
      <sparseX i="132" alpha="67110.309297609623" sparseCutoff="1.0000000000000000"/>
      <sparseX i="133" alpha="1466136.8684883341" sparseCutoff=".44686676728926671E-001"/>
      <sparseX i="134" alpha="381749.74893643311" sparseCutoff=".59469165489156837E-002"/>
      <sparseX i="135" alpha="294519.76202354830" sparseCutoff="1.0000000000000000"/>
      <sparseX i="136" alpha="-262147.53223334590" sparseCutoff="1.0000000000000000"/>
      <sparseX i="137" alpha="194702.61833471892" sparseCutoff=".51106645674467965"/>
      <sparseX i="138" alpha="414003.41315364506" sparseCutoff=".35789298703475275"/>
      <sparseX i="139" alpha="1077205.9528067464" sparseCutoff="1.0000000000000000"/>
      <sparseX i="140" alpha="63703.465369985468" sparseCutoff=".96733770507059225E-002"/>
      <sparseX i="141" alpha="-1793.2629201226275" sparseCutoff=".16795746747352291E-002"/>
      <sparseX i="142" alpha="400956.07223108830" sparseCutoff=".17647089100478741E-002"/>
      <sparseX i="143" alpha="-41079.327987854660" sparseCutoff=".31146546057114601E-004"/>
      <sparseX i="144" alpha="17303.091754674817" sparseCutoff=".64868884445978825E-003"/>
      <sparseX i="145" alpha="126538.20882769510" sparseCutoff=".29900597905900828E-002"/>
      <sparseX i="146" alpha="-2469186.0024225186" sparseCutoff=".54643686082268506"/>
      <sparseX i="147" alpha="1067808.1562943035" sparseCutoff=".12949799492667102"/>
      <sparseX i="148" alpha="549709.94599861302" sparseCutoff=".57458884526055964E-002"/>
      <sparseX i="149" alpha="2673849.2106700856" sparseCutoff=".21851542660668521E-001"/>
      <sparseX i="150" alpha="99865.705036565239" sparseCutoff=".40597628183143830E-002"/>
      <sparseX i="151" alpha="-10773.074737882587" sparseCutoff=".38012141053389570E-003"/>
      <sparseX i="152" alpha="6947.2539838788962" sparseCutoff=".97649978998115561E-003"/>
      <sparseX i="153" alpha="-1566738.3577245586" sparseCutoff=".14670682222783221"/>
      <sparseX i="154" alpha="-629094.66987416055" sparseCutoff="1.0000000000000000"/>
      <sparseX i="155" alpha="10426.815519245582" sparseCutoff=".12574808288531303E-002"/>
      <sparseX i="156" alpha="575082.41777279461" sparseCutoff=".84547751015986161"/>
      <sparseX i="157" alpha="23604.535517073949" sparseCutoff=".40842085013237384E-003"/>
      <sparseX i="158" alpha="-86836.956688857274" sparseCutoff=".10708122334887604E-002"/>
      <sparseX i="159" alpha="29277.190474266077" sparseCutoff=".21018427411184648E-003"/>
      <sparseX i="160" alpha="-1253924.7556930103" sparseCutoff="1.0000000000000000"/>
      <sparseX i="161" alpha="-1130257.4059029771" sparseCutoff=".28485823079490175E-002"/>
      <sparseX i="162" alpha="-154912.19737262538" sparseCutoff=".65150924361537199"/>
      <sparseX i="163" alpha="-27619.417118783629" sparseCutoff=".64278976394782639E-003"/>
      <sparseX i="164" alpha="-74946.391184386404" sparseCutoff=".95476695585230420"/>
      <sparseX i="165" alpha="-563964.63722532452" sparseCutoff=".40479018525448235"/>
      <sparseX i="166" alpha="923024.39827746362" sparseCutoff="1.0000000000000000"/>
      <sparseX i="167" alpha="-600804.41227659420" sparseCutoff=".86745795969720518"/>
      <sparseX i="168" alpha="-475206.19506291655" sparseCutoff=".13487596243686950E-001"/>
      <sparseX i="169" alpha="-417384.16070956556" sparseCutoff=".44399267812741207E-001"/>
      <sparseX i="170" alpha="36223.870063375922" sparseCutoff=".21267617383174398E-002"/>
      <sparseX i="171" alpha="698.00556706743009" sparseCutoff=".14163628753616209E-004"/>
      <sparseX i="172" alpha="-132800.26952335890" sparseCutoff="1.0000000000000000"/>
      <sparseX i="173" alpha="-502797.76975998847" sparseCutoff=".35818964750290072"/>
      <sparseX i="174" alpha="1307806.4602394272" sparseCutoff="1.0000000000000000"/>
      <sparseX i="175" alpha="-217459.84569716576" sparseCutoff=".37907680619752582E-002"/>
      <sparseX i="176" alpha="-2319183.0319909113" sparseCutoff="1.0000000000000000"/>
      <sparseX i="177" alpha="-1014.1832752921616" sparseCutoff=".29578445013059610E-002"/>
      <sparseX i="178" alpha="-1918776.3218633826" sparseCutoff=".69686133534462602"/>
      <sparseX i="179" alpha="37.355564395724450" sparseCutoff=".43347630027455065E-006"/>
      <sparseX i="180" alpha="-109273.96967489079" sparseCutoff="1.0000000000000000"/>
      <sparseX i="181" alpha="-609819.45446142682" sparseCutoff=".27914555748517167"/>
      <sparseX i="182" alpha="1145848.8585893332" sparseCutoff=".81137397172768522E-001"/>
      <sparseX i="183" alpha="661076.60857426375" sparseCutoff=".84547601998037636"/>
      <sparseX i="184" alpha="1976983.9318272499" sparseCutoff="1.0000000000000000"/>
      <sparseX i="185" alpha="-661512.68817473319" sparseCutoff=".47531285351744873"/>
      <sparseX i="186" alpha="-88966.279289902712" sparseCutoff=".39204909343810969E-001"/>
      <sparseX i="187" alpha="539171.79285583727" sparseCutoff=".51544791602842654"/>
      <sparseX i="188" alpha="-1075471.8863229540" sparseCutoff=".99997013326253170"/>
      <sparseX i="189" alpha="-278365.82724045025" sparseCutoff=".41888738436434148E-002"/>
      <sparseX i="190" alpha="1261088.8193436416" sparseCutoff="1.0000000000000000"/>
      <sparseX i="191" alpha="-539669.92527446093" sparseCutoff=".98135464867922351"/>
      <sparseX i="192" alpha="445950.99495112768" sparseCutoff=".49363310457388793"/>
      <sparseX i="193" alpha="-154094.35432631164" sparseCutoff="1.0000000000000000"/>
      <sparseX i="194" alpha="2782473.6755656907" sparseCutoff=".81234249337810505"/>
      <sparseX i="195" alpha="520633.96569027414" sparseCutoff="1.0000000000000000"/>
      <sparseX i="196" alpha="5917.9850478170783" sparseCutoff=".52486844290933199E-004"/>
      <sparseX i="197" alpha="-734737.05994587042" sparseCutoff=".21786581591487647"/>
      <sparseX i="198" alpha="-278349.27336483065" sparseCutoff=".98236144411605508"/>
      <sparseX i="199" alpha="323545.63886981778" sparseCutoff="1.0000000000000000"/>
      <sparseX i="200" alpha="-65721.357724002781" sparseCutoff=".60944395660765260E-002"/>
    </gpCoordinates>
    <gpCoordinates label="GAP_2020_4_27_60_2_50_5_4363" dimensions="391" signal_variance=".20000000000000001" signal_mean=".00000000000000000E+000" sparsified="T" n_permutations="1" covariance_type="2" zeta="4.0000000000000000" n_sparseX="9000" sparseX_filename="Carbon_GAP_20.xml.sparseX.GAP_2020_4_27_60_2_50_5_4363" sparseX_md5sum="0c5df7455626552cc62233de7a47e9c6">
      <descriptor>soap n_max=12 l_max=4 atom_sigma=0.5 zeta=4.0 cutoff=4.5 cutoff_transition_width=1.0 central_weight=1.0 n_sparse=9000 delta=0.2 covariance_type=dot_product sparse_method=cur_points radial_decay=-0.5</descriptor>
      <permutation i="1">1  </permutation>
      <sparseX i="1" alpha="191946.27607826111" sparseCutoff="1.0000000000000000"/>
      <sparseX i="2" alpha="720658.27120389871" sparseCutoff="1.0000000000000000"/>
      <sparseX i="3" alpha="62321.542855886219" sparseCutoff="1.0000000000000000"/>
      <sparseX i="4" alpha="-5138.2801901548037" sparseCutoff="1.0000000000000000"/>
      <sparseX i="5" alpha="-166411.00145334870" sparseCutoff="1.0000000000000000"/>
      <sparseX i="6" alpha="-13338.437817479924" sparseCutoff="1.0000000000000000"/>
      <sparseX i="7" alpha="296855.68997710361" sparseCutoff="1.0000000000000000"/>
      <sparseX i="8" alpha="135582.70882671364" sparseCutoff="1.0000000000000000"/>
      <sparseX i="9" alpha="32445.772727093459" sparseCutoff="1.0000000000000000"/>
      <sparseX i="10" alpha="-80857.255662549884" sparseCutoff="1.0000000000000000"/>
      <sparseX i="11" alpha="-42121.312706246055" sparseCutoff="1.0000000000000000"/>
      <sparseX i="12" alpha="-235089.76150408608" sparseCutoff="1.0000000000000000"/>
      <sparseX i="13" alpha="38972.068908235684" sparseCutoff="1.0000000000000000"/>
      <sparseX i="14" alpha="-34625.164139511697" sparseCutoff="1.0000000000000000"/>
      <sparseX i="15" alpha="-335258.43168108101" sparseCutoff="1.0000000000000000"/>
      <sparseX i="16" alpha="35565.781881805320" sparseCutoff="1.0000000000000000"/>
      <sparseX i="17" alpha="708821.99432208482" sparseCutoff="1.0000000000000000"/>
      <sparseX i="18" alpha="-157773.85166438544" sparseCutoff="1.0000000000000000"/>
      <sparseX i="19" alpha="-4989.0618749043633" sparseCutoff="1.0000000000000000"/>
      <sparseX i="20" alpha="27766.887849779516" sparseCutoff="1.0000000000000000"/>
      <sparseX i="21" alpha="-3538.3525261906289" sparseCutoff="1.0000000000000000"/>
      <sparseX i="22" alpha="6407.5360090634531" sparseCutoff="1.0000000000000000"/>
      <sparseX i="23" alpha="-57476.405315335760" sparseCutoff="1.0000000000000000"/>
      <sparseX i="24" alpha="-155133.26901870235" sparseCutoff="1.0000000000000000"/>
      <sparseX i="25" alpha="-8020.7733006950102" sparseCutoff="1.0000000000000000"/>
      <sparseX i="26" alpha="81414.897121487433" sparseCutoff="1.0000000000000000"/>
      <sparseX i="27" alpha="-27178.613285618983" sparseCutoff="1.0000000000000000"/>
      <sparseX i="28" alpha="-30958.802199484999" sparseCutoff="1.0000000000000000"/>
      <sparseX i="29" alpha="-11707.760708492726" sparseCutoff="1.0000000000000000"/>
      <sparseX i="30" alpha="-20832.584793532129" sparseCutoff="1.0000000000000000"/>
      <sparseX i="31" alpha="12545.206688571752" sparseCutoff="1.0000000000000000"/>
      <sparseX i="32" alpha="-40096.569554658017" sparseCutoff="1.0000000000000000"/>
      <sparseX i="33" alpha="41868.913444014703" sparseCutoff="1.0000000000000000"/>
      <sparseX i="34" alpha="102610.37543021009" sparseCutoff="1.0000000000000000"/>
      <sparseX i="35" alpha="-85096.846386789912" sparseCutoff="1.0000000000000000"/>
      <sparseX i="36" alpha="-497703.98972005356" sparseCutoff="1.0000000000000000"/>
      <sparseX i="37" alpha="-4214.9307529912985" sparseCutoff="1.0000000000000000"/>
      <sparseX i="38" alpha="-94121.169319110064" sparseCutoff="1.0000000000000000"/>
      <sparseX i="39" alpha="75210.224355452723" sparseCutoff="1.0000000000000000"/>
      <sparseX i="40" alpha="106564.09481361703" sparseCutoff="1.0000000000000000"/>
      <sparseX i="41" alpha="20481.413932717616" sparseCutoff="1.0000000000000000"/>
      <sparseX i="42" alpha="-58269.955131645474" sparseCutoff="1.0000000000000000"/>
      <sparseX i="43" alpha="87900.876818891702" sparseCutoff="1.0000000000000000"/>
      <sparseX i="44" alpha="-340.30711337783077" sparseCutoff="1.0000000000000000"/>
      <sparseX i="45" alpha="1771.2781168228880" sparseCutoff="1.0000000000000000"/>
      <sparseX i="46" alpha="-4733.4933387028022" sparseCutoff="1.0000000000000000"/>
      <sparseX i="47" alpha="45053.343828842684" sparseCutoff="1.0000000000000000"/>
      <sparseX i="48" alpha="808243.87115665874" sparseCutoff="1.0000000000000000"/>
      <sparseX i="49" alpha="-1073016.2436012221" sparseCutoff="1.0000000000000000"/>
      <sparseX i="50" alpha="-735213.66882071318" sparseCutoff="1.0000000000000000"/>
      <sparseX i="51" alpha="-100783.13378939265" sparseCutoff="1.0000000000000000"/>
      <sparseX i="52" alpha="353487.34243697446" sparseCutoff="1.0000000000000000"/>
      <sparseX i="53" alpha="23904.032145857494" sparseCutoff="1.0000000000000000"/>
      <sparseX i="54" alpha="22079.175088061547" sparseCutoff="1.0000000000000000"/>
      <sparseX i="55" alpha="-1125169.8672742848" sparseCutoff="1.0000000000000000"/>
      <sparseX i="56" alpha="-443998.93404856219" sparseCutoff="1.0000000000000000"/>
      <sparseX i="57" alpha="327150.60611827800" sparseCutoff="1.0000000000000000"/>
      <sparseX i="58" alpha="375555.86178000580" sparseCutoff="1.0000000000000000"/>
      <sparseX i="59" alpha="-7916.8808910714688" sparseCutoff="1.0000000000000000"/>
      <sparseX i="60" alpha="674695.22800471890" sparseCutoff="1.0000000000000000"/>
      <sparseX i="61" alpha="-209017.09077153497" sparseCutoff="1.0000000000000000"/>
      <sparseX i="62" alpha="-249857.04630625609" sparseCutoff="1.0000000000000000"/>
      <sparseX i="63" alpha="369463.39702857297" sparseCutoff="1.0000000000000000"/>
      <sparseX i="64" alpha="-321345.54206322849" sparseCutoff="1.0000000000000000"/>
      <sparseX i="65" alpha="439418.68222920893" sparseCutoff="1.0000000000000000"/>
      <sparseX i="66" alpha="-161371.48640639876" sparseCutoff="1.0000000000000000"/>
      <sparseX i="67" alpha="278616.90834113571" sparseCutoff="1.0000000000000000"/>
      <sparseX i="68" alpha="-62454.207061055655" sparseCutoff="1.0000000000000000"/>
      <sparseX i="69" alpha="-9017.4339436257105" sparseCutoff="1.0000000000000000"/>
      <sparseX i="70" alpha="-17295.114824609111" sparseCutoff="1.0000000000000000"/>
      <sparseX i="71" alpha="-967.00364406858171" sparseCutoff="1.0000000000000000"/>
      <sparseX i="72" alpha="3453.9937505684620" sparseCutoff="1.0000000000000000"/>
      <sparseX i="73" alpha="27371.835542295194" sparseCutoff="1.0000000000000000"/>
      <sparseX i="74" alpha="5152.9945249912425" sparseCutoff="1.0000000000000000"/>
      <sparseX i="75" alpha="81313.208902888699" sparseCutoff="1.0000000000000000"/>
      <sparseX i="76" alpha="-56740.484446482893" sparseCutoff="1.0000000000000000"/>
      <sparseX i="77" alpha="3877.5108892117528" sparseCutoff="1.0000000000000000"/>
      <sparseX i="78" alpha="-145619.07896690315" sparseCutoff="1.0000000000000000"/>
      <sparseX i="79" alpha="-122766.32742732382" sparseCutoff="1.0000000000000000"/>
      <sparseX i="80" alpha="-142680.73590334514" sparseCutoff="1.0000000000000000"/>
      <sparseX i="81" alpha="91549.176108508487" sparseCutoff="1.0000000000000000"/>
      <sparseX i="82" alpha="-12972.930441619250" sparseCutoff="1.0000000000000000"/>
      <sparseX i="83" alpha="159807.93547098787" sparseCutoff="1.0000000000000000"/>
      <sparseX i="84" alpha="403317.87233591732" sparseCutoff="1.0000000000000000"/>
      <sparseX i="85" alpha="-68108.384982091331" sparseCutoff="1.0000000000000000"/>
      <sparseX i="86" alpha="-9527.8884625565915" sparseCutoff="1.0000000000000000"/>
      <sparseX i="87" alpha="189167.79847643420" sparseCutoff="1.0000000000000000"/>
      <sparseX i="88" alpha="98739.804302643592" sparseCutoff="1.0000000000000000"/>
      <sparseX i="89" alpha="-3711.1888487806700" sparseCutoff="1.0000000000000000"/>
      <sparseX i="90" alpha="-15309.494490820935" sparseCutoff="1.0000000000000000"/>
      <sparseX i="91" alpha="-93704.728834686000" sparseCutoff="1.0000000000000000"/>
      <sparseX i="92" alpha="-84622.390198425492" sparseCutoff="1.0000000000000000"/>
      <sparseX i="93" alpha="58829.907943828388" sparseCutoff="1.0000000000000000"/>
      <sparseX i="94" alpha="124940.80046551554" sparseCutoff="1.0000000000000000"/>
      <sparseX i="95" alpha="-19960.385461295518" sparseCutoff="1.0000000000000000"/>
      <sparseX i="96" alpha="78829.393183638706" sparseCutoff="1.0000000000000000"/>
      <sparseX i="97" alpha="110497.84395741075" sparseCutoff="1.0000000000000000"/>
      <sparseX i="98" alpha="-92333.187018499390" sparseCutoff="1.0000000000000000"/>
      <sparseX i="99" alpha="261041.19027595720" sparseCutoff="1.0000000000000000"/>
      <sparseX i="100" alpha="126139.72977288846" sparseCutoff="1.0000000000000000"/>
      <sparseX i="101" alpha="-393884.05475011270" sparseCutoff="1.0000000000000000"/>
      <sparseX i="102" alpha="-257513.87181890561" sparseCutoff="1.0000000000000000"/>
      <sparseX i="103" alpha="69996.134055427683" sparseCutoff="1.0000000000000000"/>
      <sparseX i="104" alpha="-6746.0709250203354" sparseCutoff="1.0000000000000000"/>
      <sparseX i="105" alpha="-52420.920507302828" sparseCutoff="1.0000000000000000"/>
      <sparseX i="106" alpha="6526.0545276214671" sparseCutoff="1.0000000000000000"/>
      <sparseX i="107" alpha="-1131.1170124407745" sparseCutoff="1.0000000000000000"/>
      <sparseX i="108" alpha="73508.210260088454" sparseCutoff="1.0000000000000000"/>
      <sparseX i="109" alpha="-206827.71843545130" sparseCutoff="1.0000000000000000"/>
      <sparseX i="110" alpha="-152292.15207519341" sparseCutoff="1.0000000000000000"/>
      <sparseX i="111" alpha="50832.843767524944" sparseCutoff="1.0000000000000000"/>
      <sparseX i="112" alpha="71850.150194887523" sparseCutoff="1.0000000000000000"/>
      <sparseX i="113" alpha="-13961.760878233470" sparseCutoff="1.0000000000000000"/>
      <sparseX i="114" alpha="-976.41265956728034" sparseCutoff="1.0000000000000000"/>
      <sparseX i="115" alpha="165618.99120934095" sparseCutoff="1.0000000000000000"/>
      <sparseX i="116" alpha="-8113.4412127121213" sparseCutoff="1.0000000000000000"/>
      <sparseX i="117" alpha="-86447.513217118947" sparseCutoff="1.0000000000000000"/>
      <sparseX i="118" alpha="-43083.801362359896" sparseCutoff="1.0000000000000000"/>
      <sparseX i="119" alpha="-47515.575674131964" sparseCutoff="1.0000000000000000"/>
      <sparseX i="120" alpha="25514.159213534134" sparseCutoff="1.0000000000000000"/>
      <sparseX i="121" alpha="-9361.4535688367796" sparseCutoff="1.0000000000000000"/>
      <sparseX i="122" alpha="-14436.315197282776" sparseCutoff="1.0000000000000000"/>
      <sparseX i="123" alpha="12638.540325776972" sparseCutoff="1.0000000000000000"/>
      <sparseX i="124" alpha="-71716.166123438117" sparseCutoff="1.0000000000000000"/>
      <sparseX i="125" alpha="43457.348796779588" sparseCutoff="1.0000000000000000"/>
      <sparseX i="126" alpha="60903.848301247672" sparseCutoff="1.0000000000000000"/>
      <sparseX i="127" alpha="-15521.595962833944" sparseCutoff="1.0000000000000000"/>
      <sparseX i="128" alpha="378172.69175273442" sparseCutoff="1.0000000000000000"/>
      <sparseX i="129" alpha="107077.69584124636" sparseCutoff="1.0000000000000000"/>
      <sparseX i="130" alpha="661910.95291044388" sparseCutoff="1.0000000000000000"/>
      <sparseX i="131" alpha="-150356.14246648096" sparseCutoff="1.0000000000000000"/>
      <sparseX i="132" alpha="29048.160720674354" sparseCutoff="1.0000000000000000"/>
      <sparseX i="133" alpha="-111018.48141709347" sparseCutoff="1.0000000000000000"/>
      <sparseX i="134" alpha="111487.62115574583" sparseCutoff="1.0000000000000000"/>
      <sparseX i="135" alpha="128727.31335058191" sparseCutoff="1.0000000000000000"/>
      <sparseX i="136" alpha="15235.900951348125" sparseCutoff="1.0000000000000000"/>
      <sparseX i="137" alpha="68535.217171343960" sparseCutoff="1.0000000000000000"/>
      <sparseX i="138" alpha="109817.80506349186" sparseCutoff="1.0000000000000000"/>
      <sparseX i="139" alpha="54173.829554403928" sparseCutoff="1.0000000000000000"/>
      <sparseX i="140" alpha="-2303.0676367480237" sparseCutoff="1.0000000000000000"/>
      <sparseX i="141" alpha="45634.746863212436" sparseCutoff="1.0000000000000000"/>
      <sparseX i="142" alpha="-57278.466853842401" sparseCutoff="1.0000000000000000"/>
      <sparseX i="143" alpha="-36702.452724975279" sparseCutoff="1.0000000000000000"/>
      <sparseX i="144" alpha="9288.5924262089102" sparseCutoff="1.0000000000000000"/>
      <sparseX i="145" alpha="-103010.72346292768" sparseCutoff="1.0000000000000000"/>
      <sparseX i="146" alpha="-92432.228370546713" sparseCutoff="1.0000000000000000"/>
      <sparseX i="147" alpha="-472467.04937874613" sparseCutoff="1.0000000000000000"/>
      <sparseX i="148" alpha="-472468.69235829223" sparseCutoff="1.0000000000000000"/>
      <sparseX i="149" alpha="88033.317959922089" sparseCutoff="1.0000000000000000"/>
      <sparseX i="150" alpha="-8071.8568781782360" sparseCutoff="1.0000000000000000"/>
      <sparseX i="151" alpha="15360.359157669569" sparseCutoff="1.0000000000000000"/>
      <sparseX i="152" alpha="20502.281638975473" sparseCutoff="1.0000000000000000"/>
      <sparseX i="153" alpha="189527.20823327167" sparseCutoff="1.0000000000000000"/>
      <sparseX i="154" alpha="222607.67868363034" sparseCutoff="1.0000000000000000"/>
      <sparseX i="155" alpha="85527.181774453275" sparseCutoff="1.0000000000000000"/>
      <sparseX i="156" alpha="-18247.761172441948" sparseCutoff="1.0000000000000000"/>
      <sparseX i="157" alpha="111717.96584119833" sparseCutoff="1.0000000000000000"/>
      <sparseX i="158" alpha="-95984.191245277616" sparseCutoff="1.0000000000000000"/>
      <sparseX i="159" alpha="-275836.63488105137" sparseCutoff="1.0000000000000000"/>
      <sparseX i="160" alpha="-87410.512982475455" sparseCutoff="1.0000000000000000"/>
      <sparseX i="161" alpha="16717.109382280705" sparseCutoff="1.0000000000000000"/>
      <sparseX i="162" alpha="19000.019128790140" sparseCutoff="1.0000000000000000"/>
      <sparseX i="163" alpha="23965.837859684572" sparseCutoff="1.0000000000000000"/>
      <sparseX i="164" alpha="-5097.5540199323659" sparseCutoff="1.0000000000000000"/>
      <sparseX i="165" alpha="-5100.2073099600366" sparseCutoff="1.0000000000000000"/>
      <sparseX i="166" alpha="320172.93522041012" sparseCutoff="1.0000000000000000"/>
      <sparseX i="167" alpha="-122487.96257212744" sparseCutoff="1.0000000000000000"/>
      <sparseX i="168" alpha="-94753.384349556538" sparseCutoff="1.0000000000000000"/>
      <sparseX i="169" alpha="71162.010810288615" sparseCutoff="1.0000000000000000"/>
      <sparseX i="170" alpha="-75891.149170626668" sparseCutoff="1.0000000000000000"/>
      <sparseX i="171" alpha="19472.562947714414" sparseCutoff="1.0000000000000000"/>
      <sparseX i="172" alpha="-39866.150371031552" sparseCutoff="1.0000000000000000"/>
      <sparseX i="173" alpha="465031.70817126281" sparseCutoff="1.0000000000000000"/>
      <sparseX i="174" alpha="20491.836745940174" sparseCutoff="1.0000000000000000"/>
      <sparseX i="175" alpha="-79335.646281247595" sparseCutoff="1.0000000000000000"/>
      <sparseX i="176" alpha="6406.3968820313848" sparseCutoff="1.0000000000000000"/>
      <sparseX i="177" alpha="47701.038499575174" sparseCutoff="1.0000000000000000"/>
      <sparseX i="178" alpha="-55593.334997361992" sparseCutoff="1.0000000000000000"/>
      <sparseX i="179" alpha="285639.98556887486" sparseCutoff="1.0000000000000000"/>
      <sparseX i="180" alpha="-380828.14924262185" sparseCutoff="1.0000000000000000"/>
      <sparseX i="181" alpha="-69889.283186071101" sparseCutoff="1.0000000000000000"/>
      <sparseX i="182" alpha="-3642.9357427901259" sparseCutoff="1.0000000000000000"/>
      <sparseX i="183" alpha="150019.95850292291" sparseCutoff="1.0000000000000000"/>
      <sparseX i="184" alpha="-282789.44461094053" sparseCutoff="1.0000000000000000"/>
      <sparseX i="185" alpha="-160950.43758041487" sparseCutoff="1.0000000000000000"/>
      <sparseX i="186" alpha="-154183.85045600013" sparseCutoff="1.0000000000000000"/>
      <sparseX i="187" alpha="-473560.12249992846" sparseCutoff="1.0000000000000000"/>
      <sparseX i="188" alpha="176668.59561511583" sparseCutoff="1.0000000000000000"/>
      <sparseX i="189" alpha="226338.10436320570" sparseCutoff="1.0000000000000000"/>
      <sparseX i="190" alpha="-20256.967486135767" sparseCutoff="1.0000000000000000"/>
      <sparseX i="191" alpha="-73956.819003600162" sparseCutoff="1.0000000000000000"/>
      <sparseX i="192" alpha="-33973.390672808840" sparseCutoff="1.0000000000000000"/>
      <sparseX i="193" alpha="192912.06284100772" sparseCutoff="1.0000000000000000"/>
      <sparseX i="194" alpha="-78222.852017799814" sparseCutoff="1.0000000000000000"/>
      <sparseX i="195" alpha="128509.93400849793" sparseCutoff="1.0000000000000000"/>
      <sparseX i="196" alpha="6824.1967058469481" sparseCutoff="1.0000000000000000"/>
      <sparseX i="197" alpha="-33294.285664398281" sparseCutoff="1.0000000000000000"/>
      <sparseX i="198" alpha="69665.157144358760" sparseCutoff="1.0000000000000000"/>
      <sparseX i="199" alpha="-25518.142158259237" sparseCutoff="1.0000000000000000"/>
      <sparseX i="200" alpha="-123597.31901248795" sparseCutoff="1.0000000000000000"/>
      <sparseX i="201" alpha="-139708.21326176065" sparseCutoff="1.0000000000000000"/>
      <sparseX i="202" alpha="25912.754198508366" sparseCutoff="1.0000000000000000"/>
      <sparseX i="203" alpha="-310726.08184337470" sparseCutoff="1.0000000000000000"/>
      <sparseX i="204" alpha="98296.140466577926" sparseCutoff="1.0000000000000000"/>
      <sparseX i="205" alpha="-16657.081926397856" sparseCutoff="1.0000000000000000"/>
      <sparseX i="206" alpha="-12911.632428684519" sparseCutoff="1.0000000000000000"/>
      <sparseX i="207" alpha="-29373.362466296276" sparseCutoff="1.0000000000000000"/>
      <sparseX i="208" alpha="-36908.741461613128" sparseCutoff="1.0000000000000000"/>
      <sparseX i="209" alpha="-24686.383603160892" sparseCutoff="1.0000000000000000"/>
      <sparseX i="210" alpha="-20429.642047204481" sparseCutoff="1.0000000000000000"/>
      <sparseX i="211" alpha="-246.67277859006964" sparseCutoff="1.0000000000000000"/>
      <sparseX i="212" alpha="-100406.37939312376" sparseCutoff="1.0000000000000000"/>
      <sparseX i="213" alpha="-68018.621076703581" sparseCutoff="1.0000000000000000"/>
      <sparseX i="214" alpha="100996.73837607638" sparseCutoff="1.0000000000000000"/>
      <sparseX i="215" alpha="8977.1718255133874" sparseCutoff="1.0000000000000000"/>
      <sparseX i="216" alpha="21070.478192689989" sparseCutoff="1.0000000000000000"/>
      <sparseX i="217" alpha="-62585.128762116830" sparseCutoff="1.0000000000000000"/>
      <sparseX i="218" alpha="22602.251922312782" sparseCutoff="1.0000000000000000"/>
      <sparseX i="219" alpha="-153797.10794109839" sparseCutoff="1.0000000000000000"/>
      <sparseX i="220" alpha="-856199.28355660697" sparseCutoff="1.0000000000000000"/>
      <sparseX i="221" alpha="44103.821405740848" sparseCutoff="1.0000000000000000"/>
      <sparseX i="222" alpha="-215868.35990471291" sparseCutoff="1.0000000000000000"/>
      <sparseX i="223" alpha="89188.049818889645" sparseCutoff="1.0000000000000000"/>
      <sparseX i="224" alpha="-12854.106591335292" sparseCutoff="1.0000000000000000"/>
      <sparseX i="225" alpha="-186803.19400918038" sparseCutoff="1.0000000000000000"/>
      <sparseX i="226" alpha="39088.736289640328" sparseCutoff="1.0000000000000000"/>
      <sparseX i="227" alpha="30389.539916237685" sparseCutoff="1.0000000000000000"/>
      <sparseX i="228" alpha="56424.533994571990" sparseCutoff="1.0000000000000000"/>
      <sparseX i="229" alpha="9845.5524055053738" sparseCutoff="1.0000000000000000"/>
      <sparseX i="230" alpha="-109464.67526432365" sparseCutoff="1.0000000000000000"/>
      <sparseX i="231" alpha="67010.859757615326" sparseCutoff="1.0000000000000000"/>
      <sparseX i="232" alpha="-90897.114837431043" sparseCutoff="1.0000000000000000"/>
      <sparseX i="233" alpha="-29652.727860923158" sparseCutoff="1.0000000000000000"/>
      <sparseX i="234" alpha="77908.849122882253" sparseCutoff="1.0000000000000000"/>
      <sparseX i="235" alpha="-7100.0856628362681" sparseCutoff="1.0000000000000000"/>
      <sparseX i="236" alpha="527725.98486416379" sparseCutoff="1.0000000000000000"/>
      <sparseX i="237" alpha="849801.42572615598" sparseCutoff="1.0000000000000000"/>
      <sparseX i="238" alpha="804048.42952766281" sparseCutoff="1.0000000000000000"/>
      <sparseX i="239" alpha="-1324872.5994894553" sparseCutoff="1.0000000000000000"/>
      <sparseX i="240" alpha="794482.43687876617" sparseCutoff="1.0000000000000000"/>
      <sparseX i="241" alpha="-73373.617773210935" sparseCutoff="1.0000000000000000"/>
      <sparseX i="242" alpha="39382.968039892374" sparseCutoff="1.0000000000000000"/>
      <sparseX i="243" alpha="2671.5391953659387" sparseCutoff="1.0000000000000000"/>
      <sparseX i="244" alpha="5406.0578577452743" sparseCutoff="1.0000000000000000"/>
      <sparseX i="245" alpha="-186031.07026153151" sparseCutoff="1.0000000000000000"/>
      <sparseX i="246" alpha="-120834.33712320773" sparseCutoff="1.0000000000000000"/>
      <sparseX i="247" alpha="4941.0253379697269" sparseCutoff="1.0000000000000000"/>
      <sparseX i="248" alpha="46647.199277935404" sparseCutoff="1.0000000000000000"/>
      <sparseX i="249" alpha="9327.5164302253852" sparseCutoff="1.0000000000000000"/>
      <sparseX i="250" alpha="-7944.3088337908439" sparseCutoff="1.0000000000000000"/>
      <sparseX i="251" alpha="-144595.93992119821" sparseCutoff="1.0000000000000000"/>
      <sparseX i="252" alpha="-17585.058487080743" sparseCutoff="1.0000000000000000"/>
      <sparseX i="253" alpha="12633.529552999822" sparseCutoff="1.0000000000000000"/>
      <sparseX i="254" alpha="13354.975962446617" sparseCutoff="1.0000000000000000"/>
      <sparseX i="255" alpha="29447.968194500223" sparseCutoff="1.0000000000000000"/>
      <sparseX i="256" alpha="25106.103965334689" sparseCutoff="1.0000000000000000"/>
      <sparseX i="257" alpha="107219.32340663541" sparseCutoff="1.0000000000000000"/>
      <sparseX i="258" alpha="90315.857493260235" sparseCutoff="1.0000000000000000"/>
      <sparseX i="259" alpha="461841.78684162151" sparseCutoff="1.0000000000000000"/>
      <sparseX i="260" alpha="71378.478932568352" sparseCutoff="1.0000000000000000"/>
      <sparseX i="261" alpha="134499.35055504550" sparseCutoff="1.0000000000000000"/>
      <sparseX i="262" alpha="20215.125306681810" sparseCutoff="1.0000000000000000"/>
      <sparseX i="263" alpha="-21746.994725433335" sparseCutoff="1.0000000000000000"/>
      <sparseX i="264" alpha="-195781.11498171469" sparseCutoff="1.0000000000000000"/>
      <sparseX i="265" alpha="-261676.92794455314" sparseCutoff="1.0000000000000000"/>
      <sparseX i="266" alpha="559180.02819606976" sparseCutoff="1.0000000000000000"/>
      <sparseX i="267" alpha="-681723.67839821288" sparseCutoff="1.0000000000000000"/>
      <sparseX i="268" alpha="-742484.44635322539" sparseCutoff="1.0000000000000000"/>
      <sparseX i="269" alpha="822586.92246744665" sparseCutoff="1.0000000000000000"/>
      <sparseX i="270" alpha="-11007.450695969897" sparseCutoff="1.0000000000000000"/>
      <sparseX i="271" alpha="83833.308088035425" sparseCutoff="1.0000000000000000"/>
      <sparseX i="272" alpha="-146966.56979701819" sparseCutoff="1.0000000000000000"/>
      <sparseX i="273" alpha="-42538.408453582546" sparseCutoff="1.0000000000000000"/>
      <sparseX i="274" alpha="142088.20197874415" sparseCutoff="1.0000000000000000"/>
      <sparseX i="275" alpha="264633.77459853177" sparseCutoff="1.0000000000000000"/>
      <sparseX i="276" alpha="-26894.462997865205" sparseCutoff="1.0000000000000000"/>
      <sparseX i="277" alpha="112738.83959584786" sparseCutoff="1.0000000000000000"/>
      <sparseX i="278" alpha="-422564.54407605896" sparseCutoff="1.0000000000000000"/>
      <sparseX i="279" alpha="43594.440000841983" sparseCutoff="1.0000000000000000"/>
      <sparseX i="280" alpha="461358.91931535763" sparseCutoff="1.0000000000000000"/>
      <sparseX i="281" alpha="-256871.29391216332" sparseCutoff="1.0000000000000000"/>
      <sparseX i="282" alpha="153151.68394332551" sparseCutoff="1.0000000000000000"/>
      <sparseX i="283" alpha="222656.05818781361" sparseCutoff="1.0000000000000000"/>
      <sparseX i="284" alpha="-295367.69189283322" sparseCutoff="1.0000000000000000"/>
      <sparseX i="285" alpha="62819.142022454020" sparseCutoff="1.0000000000000000"/>
      <sparseX i="286" alpha="-695655.49864703149" sparseCutoff="1.0000000000000000"/>
      <sparseX i="287" alpha="-5102.7897153690246" sparseCutoff="1.0000000000000000"/>
      <sparseX i="288" alpha="54970.519758001305" sparseCutoff="1.0000000000000000"/>
      <sparseX i="289" alpha="-14210.911685566432" sparseCutoff="1.0000000000000000"/>
      <sparseX i="290" alpha="120958.52998903117" sparseCutoff="1.0000000000000000"/>
      <sparseX i="291" alpha="35893.656551622000" sparseCutoff="1.0000000000000000"/>
      <sparseX i="292" alpha="-197186.23354354603" sparseCutoff="1.0000000000000000"/>
      <sparseX i="293" alpha="107686.58449972604" sparseCutoff="1.0000000000000000"/>
      <sparseX i="294" alpha="-2810.8376428595202" sparseCutoff="1.0000000000000000"/>
      <sparseX i="295" alpha="102674.33248976567" sparseCutoff="1.0000000000000000"/>
      <sparseX i="296" alpha="-261169.95993221091" sparseCutoff="1.0000000000000000"/>
      <sparseX i="297" alpha="231973.93510513529" sparseCutoff="1.0000000000000000"/>
      <sparseX i="298" alpha="166604.26806081505" sparseCutoff="1.0000000000000000"/>
      <sparseX i="299" alpha="-68766.743560801115" sparseCutoff="1.0000000000000000"/>
      <sparseX i="300" alpha="-39740.019920516817" sparseCutoff="1.0000000000000000"/>
      <sparseX i="301" alpha="-70201.242852572730" sparseCutoff="1.0000000000000000"/>
      <sparseX i="302" alpha="-9898.3878636338377" sparseCutoff="1.0000000000000000"/>
      <sparseX i="303" alpha="-168986.58340740675" sparseCutoff="1.0000000000000000"/>
      <sparseX i="304" alpha="-288582.73534390458" sparseCutoff="1.0000000000000000"/>
      <sparseX i="305" alpha="37437.014368597818" sparseCutoff="1.0000000000000000"/>
      <sparseX i="306" alpha="-105290.95936794145" sparseCutoff="1.0000000000000000"/>
      <sparseX i="307" alpha="-131985.19589704409" sparseCutoff="1.0000000000000000"/>
      <sparseX i="308" alpha="5056.1287769240816" sparseCutoff="1.0000000000000000"/>
      <sparseX i="309" alpha="-776486.84988985036" sparseCutoff="1.0000000000000000"/>
      <sparseX i="310" alpha="182014.10290865236" sparseCutoff="1.0000000000000000"/>
      <sparseX i="311" alpha="284932.78384069219" sparseCutoff="1.0000000000000000"/>
      <sparseX i="312" alpha="28176.356627665940" sparseCutoff="1.0000000000000000"/>
      <sparseX i="313" alpha="-20610.204053767975" sparseCutoff="1.0000000000000000"/>
      <sparseX i="314" alpha="19724.833536323549" sparseCutoff="1.0000000000000000"/>
      <sparseX i="315" alpha="-71389.684852953404" sparseCutoff="1.0000000000000000"/>
      <sparseX i="316" alpha="-100655.64119245372" sparseCutoff="1.0000000000000000"/>
      <sparseX i="317" alpha="-6596.5095537795414" sparseCutoff="1.0000000000000000"/>
      <sparseX i="318" alpha="-6301.3235798783498" sparseCutoff="1.0000000000000000"/>
      <sparseX i="319" alpha="-4448.1664094037833" sparseCutoff="1.0000000000000000"/>
      <sparseX i="320" alpha="-6595.2876557800819" sparseCutoff="1.0000000000000000"/>
      <sparseX i="321" alpha="-26906.321607926438" sparseCutoff="1.0000000000000000"/>
      <sparseX i="322" alpha="79083.170292208713" sparseCutoff="1.0000000000000000"/>
      <sparseX i="323" alpha="-119222.73024027653" sparseCutoff="1.0000000000000000"/>
      <sparseX i="324" alpha="-188080.02550443262" sparseCutoff="1.0000000000000000"/>
      <sparseX i="325" alpha="-203827.13422561681" sparseCutoff="1.0000000000000000"/>
      <sparseX i="326" alpha="-17316.731022800479" sparseCutoff="1.0000000000000000"/>
      <sparseX i="327" alpha="50558.539333684872" sparseCutoff="1.0000000000000000"/>
      <sparseX i="328" alpha="48359.035774855387" sparseCutoff="1.0000000000000000"/>
      <sparseX i="329" alpha="309805.33469513844" sparseCutoff="1.0000000000000000"/>
      <sparseX i="330" alpha="90647.724929327233" sparseCutoff="1.0000000000000000"/>
      <sparseX i="331" alpha="19980.800767026463" sparseCutoff="1.0000000000000000"/>
      <sparseX i="332" alpha="-202856.81965011047" sparseCutoff="1.0000000000000000"/>
      <sparseX i="333" alpha="67947.099140435705" sparseCutoff="1.0000000000000000"/>
      <sparseX i="334" alpha="-439451.75569311529" sparseCutoff="1.0000000000000000"/>
      <sparseX i="335" alpha="-236174.64773745608" sparseCutoff="1.0000000000000000"/>
      <sparseX i="336" alpha="-236253.14032831494" sparseCutoff="1.0000000000000000"/>
      <sparseX i="337" alpha="34966.536185938283" sparseCutoff="1.0000000000000000"/>
      <sparseX i="338" alpha="875303.75273558381" sparseCutoff="1.0000000000000000"/>
      <sparseX i="339" alpha="-22823.688472171169" sparseCutoff="1.0000000000000000"/>
      <sparseX i="340" alpha="-25895.681489370891" sparseCutoff="1.0000000000000000"/>
      <sparseX i="341" alpha="-49850.076949521885" sparseCutoff="1.0000000000000000"/>
      <sparseX i="342" alpha="-519674.87999329093" sparseCutoff="1.0000000000000000"/>
      <sparseX i="343" alpha="256648.49259326019" sparseCutoff="1.0000000000000000"/>
      <sparseX i="344" alpha="400847.59050472867" sparseCutoff="1.0000000000000000"/>
      <sparseX i="345" alpha="70277.669647410978" sparseCutoff="1.0000000000000000"/>
      <sparseX i="346" alpha="-102882.76273978983" sparseCutoff="1.0000000000000000"/>
      <sparseX i="347" alpha="75152.073576443188" sparseCutoff="1.0000000000000000"/>
      <sparseX i="348" alpha="-165458.70957199091" sparseCutoff="1.0000000000000000"/>
      <sparseX i="349" alpha="-139778.33069671187" sparseCutoff="1.0000000000000000"/>
      <sparseX i="350" alpha="151277.33182324292" sparseCutoff="1.0000000000000000"/>
      <sparseX i="351" alpha="-82962.944703966874" sparseCutoff="1.0000000000000000"/>
      <sparseX i="352" alpha="224217.89750350863" sparseCutoff="1.0000000000000000"/>
      <sparseX i="353" alpha="-84240.371675176386" sparseCutoff="1.0000000000000000"/>
      <sparseX i="354" alpha="5455.8176659995070" sparseCutoff="1.0000000000000000"/>
      <sparseX i="355" alpha="124449.78854343301" sparseCutoff="1.0000000000000000"/>
      <sparseX i="356" alpha="44532.056300261946" sparseCutoff="1.0000000000000000"/>
      <sparseX i="357" alpha="160226.10003952225" sparseCutoff="1.0000000000000000"/>
      <sparseX i="358" alpha="-171163.64711044106" sparseCutoff="1.0000000000000000"/>
      <sparseX i="359" alpha="-52342.620285061625" sparseCutoff="1.0000000000000000"/>
      <sparseX i="360" alpha="-14690.350515134902" sparseCutoff="1.0000000000000000"/>
      <sparseX i="361" alpha="118057.47437460592" sparseCutoff="1.0000000000000000"/>
      <sparseX i="362" alpha="41178.143957856140" sparseCutoff="1.0000000000000000"/>
      <sparseX i="363" alpha="-105422.61663655213" sparseCutoff="1.0000000000000000"/>
      <sparseX i="364" alpha="189085.85800437746" sparseCutoff="1.0000000000000000"/>
      <sparseX i="365" alpha="-201694.55169953965" sparseCutoff="1.0000000000000000"/>
      <sparseX i="366" alpha="4824.9719736113993" sparseCutoff="1.0000000000000000"/>
      <sparseX i="367" alpha="-115374.01600978342" sparseCutoff="1.0000000000000000"/>
      <sparseX i="368" alpha="-193865.73342665000" sparseCutoff="1.0000000000000000"/>
      <sparseX i="369" alpha="-87601.739573603933" sparseCutoff="1.0000000000000000"/>
      <sparseX i="370" alpha="92071.116430886381" sparseCutoff="1.0000000000000000"/>
      <sparseX i="371" alpha="-20031.118552570937" sparseCutoff="1.0000000000000000"/>
      <sparseX i="372" alpha="50123.947289076459" sparseCutoff="1.0000000000000000"/>
      <sparseX i="373" alpha="-27033.063936105660" sparseCutoff="1.0000000000000000"/>
      <sparseX i="374" alpha="-9991.6644591108834" sparseCutoff="1.0000000000000000"/>
      <sparseX i="375" alpha="-225494.55719548598" sparseCutoff="1.0000000000000000"/>
      <sparseX i="376" alpha="159084.58013733078" sparseCutoff="1.0000000000000000"/>
      <sparseX i="377" alpha="49003.087002007473" sparseCutoff="1.0000000000000000"/>
      <sparseX i="378" alpha="-101299.30667296586" sparseCutoff="1.0000000000000000"/>
      <sparseX i="379" alpha="-86128.311522186807" sparseCutoff="1.0000000000000000"/>
      <sparseX i="380" alpha="6429.0688796655904" sparseCutoff="1.0000000000000000"/>
      <sparseX i="381" alpha="-15475.729745088700" sparseCutoff="1.0000000000000000"/>
      <sparseX i="382" alpha="44292.626917300942" sparseCutoff="1.0000000000000000"/>
      <sparseX i="383" alpha="-30272.674751998791" sparseCutoff="1.0000000000000000"/>
      <sparseX i="384" alpha="215662.65123258889" sparseCutoff="1.0000000000000000"/>
      <sparseX i="385" alpha="-114049.16425363382" sparseCutoff="1.0000000000000000"/>
      <sparseX i="386" alpha="-293952.13633724675" sparseCutoff="1.0000000000000000"/>
      <sparseX i="387" alpha="115881.97229698105" sparseCutoff="1.0000000000000000"/>
      <sparseX i="388" alpha="1382810.9466905186" sparseCutoff="1.0000000000000000"/>
      <sparseX i="389" alpha="-3683.7066572615054" sparseCutoff="1.0000000000000000"/>
      <sparseX i="390" alpha="-47833.092636586109" sparseCutoff="1.0000000000000000"/>
      <sparseX i="391" alpha="-1008.3307740116459" sparseCutoff="1.0000000000000000"/>
      <sparseX i="392" alpha="95626.159271969431" sparseCutoff="1.0000000000000000"/>
      <sparseX i="393" alpha="-140811.58127380503" sparseCutoff="1.0000000000000000"/>
      <sparseX i="394" alpha="-151712.68113670545" sparseCutoff="1.0000000000000000"/>
      <sparseX i="395" alpha="35150.618564448378" sparseCutoff="1.0000000000000000"/>
      <sparseX i="396" alpha="40470.051742927193" sparseCutoff="1.0000000000000000"/>
      <sparseX i="397" alpha="95564.564452266830" sparseCutoff="1.0000000000000000"/>
      <sparseX i="398" alpha="297529.82789850456" sparseCutoff="1.0000000000000000"/>
      <sparseX i="399" alpha="-99313.919670396601" sparseCutoff="1.0000000000000000"/>
      <sparseX i="400" alpha="691353.00427552150" sparseCutoff="1.0000000000000000"/>
      <sparseX i="401" alpha="90043.550324312309" sparseCutoff="1.0000000000000000"/>
      <sparseX i="402" alpha="69712.698039289753" sparseCutoff="1.0000000000000000"/>
      <sparseX i="403" alpha="-265404.84995086904" sparseCutoff="1.0000000000000000"/>
      <sparseX i="404" alpha="-238525.98922476626" sparseCutoff="1.0000000000000000"/>
      <sparseX i="405" alpha="196491.12261880736" sparseCutoff="1.0000000000000000"/>
      <sparseX i="406" alpha="-2596.8691122490254" sparseCutoff="1.0000000000000000"/>
      <sparseX i="407" alpha="127329.15094066650" sparseCutoff="1.0000000000000000"/>
      <sparseX i="408" alpha="-67269.037888240739" sparseCutoff="1.0000000000000000"/>
      <sparseX i="409" alpha="-45930.847661288572" sparseCutoff="1.0000000000000000"/>
      <sparseX i="410" alpha="243943.56196001937" sparseCutoff="1.0000000000000000"/>
      <sparseX i="411" alpha="-225181.79037557833" sparseCutoff="1.0000000000000000"/>
      <sparseX i="412" alpha="250166.57517159049" sparseCutoff="1.0000000000000000"/>
      <sparseX i="413" alpha="-84441.943713199697" sparseCutoff="1.0000000000000000"/>
      <sparseX i="414" alpha="-19718.788216199926" sparseCutoff="1.0000000000000000"/>
      <sparseX i="415" alpha="105959.78859734128" sparseCutoff="1.0000000000000000"/>
      <sparseX i="416" alpha="-18736.693882527805" sparseCutoff="1.0000000000000000"/>
      <sparseX i="417" alpha="4965.9860667736830" sparseCutoff="1.0000000000000000"/>
      <sparseX i="418" alpha="-84057.517224551542" sparseCutoff="1.0000000000000000"/>
      <sparseX i="419" alpha="-348253.45118160296" sparseCutoff="1.0000000000000000"/>
      <sparseX i="420" alpha="393826.24680931383" sparseCutoff="1.0000000000000000"/>
      <sparseX i="421" alpha="-6340.7453197138502" sparseCutoff="1.0000000000000000"/>
      <sparseX i="422" alpha="-13849.878732489859" sparseCutoff="1.0000000000000000"/>
      <sparseX i="423" alpha="-11220.842971678356" sparseCutoff="1.0000000000000000"/>
      <sparseX i="424" alpha="-2909.4469546474947" sparseCutoff="1.0000000000000000"/>
      <sparseX i="425" alpha="14038.331003000867" sparseCutoff="1.0000000000000000"/>
      <sparseX i="426" alpha="-13347.880703662982" sparseCutoff="1.0000000000000000"/>
      <sparseX i="427" alpha="-6650.0349632328098" sparseCutoff="1.0000000000000000"/>
      <sparseX i="428" alpha="-11643.983878103358" sparseCutoff="1.0000000000000000"/>
      <sparseX i="429" alpha="-308.76969147700720" sparseCutoff="1.0000000000000000"/>
      <sparseX i="430" alpha="8053.2878276042011" sparseCutoff="1.0000000000000000"/>
      <sparseX i="431" alpha="-107916.29951268469" sparseCutoff="1.0000000000000000"/>
      <sparseX i="432" alpha="-65148.475473409919" sparseCutoff="1.0000000000000000"/>
      <sparseX i="433" alpha="45235.608944669046" sparseCutoff="1.0000000000000000"/>
      <sparseX i="434" alpha="70606.349744499326" sparseCutoff="1.0000000000000000"/>
      <sparseX i="435" alpha="87317.746025225293" sparseCutoff="1.0000000000000000"/>
      <sparseX i="436" alpha="62556.792949942530" sparseCutoff="1.0000000000000000"/>
      <sparseX i="437" alpha="592381.53718796244" sparseCutoff="1.0000000000000000"/>
      <sparseX i="438" alpha="-2846.3799616908136" sparseCutoff="1.0000000000000000"/>
      <sparseX i="439" alpha="-7358.1032316725214" sparseCutoff="1.0000000000000000"/>
      <sparseX i="440" alpha="-13721.416485278638" sparseCutoff="1.0000000000000000"/>
      <sparseX i="441" alpha="22715.652390598869" sparseCutoff="1.0000000000000000"/>
      <sparseX i="442" alpha="-324.63845392470131" sparseCutoff="1.0000000000000000"/>
      <sparseX i="443" alpha="308813.21367372776" sparseCutoff="1.0000000000000000"/>
      <sparseX i="444" alpha="22216.218726053743" sparseCutoff="1.0000000000000000"/>
      <sparseX i="445" alpha="2390.7985242955215" sparseCutoff="1.0000000000000000"/>
      <sparseX i="446" alpha="-706139.84239953873" sparseCutoff="1.0000000000000000"/>
      <sparseX i="447" alpha="-209383.07207692208" sparseCutoff="1.0000000000000000"/>
      <sparseX i="448" alpha="-159449.84684535774" sparseCutoff="1.0000000000000000"/>
      <sparseX i="449" alpha="896711.85520932009" sparseCutoff="1.0000000000000000"/>
      <sparseX i="450" alpha="196841.28113316090" sparseCutoff="1.0000000000000000"/>
      <sparseX i="451" alpha="664.15990851022059" sparseCutoff="1.0000000000000000"/>
      <sparseX i="452" alpha="-56574.537849271146" sparseCutoff="1.0000000000000000"/>
      <sparseX i="453" alpha="8851.4572013576744" sparseCutoff="1.0000000000000000"/>
      <sparseX i="454" alpha="14868.089083049957" sparseCutoff="1.0000000000000000"/>
      <sparseX i="455" alpha="-27413.726386805214" sparseCutoff="1.0000000000000000"/>
      <sparseX i="456" alpha="25042.134434617437" sparseCutoff="1.0000000000000000"/>
      <sparseX i="457" alpha="-30272.125214030068" sparseCutoff="1.0000000000000000"/>
      <sparseX i="458" alpha="100913.65492720662" sparseCutoff="1.0000000000000000"/>
      <sparseX i="459" alpha="27348.882775144641" sparseCutoff="1.0000000000000000"/>
      <sparseX i="460" alpha="6877.1424462201894" sparseCutoff="1.0000000000000000"/>
      <sparseX i="461" alpha="-19763.086661402383" sparseCutoff="1.0000000000000000"/>
      <sparseX i="462" alpha="117534.71101726512" sparseCutoff="1.0000000000000000"/>
      <sparseX i="463" alpha="-174195.73756491442" sparseCutoff="1.0000000000000000"/>
      <sparseX i="464" alpha="-857726.90834920888" sparseCutoff="1.0000000000000000"/>
      <sparseX i="465" alpha="-392362.39693574130" sparseCutoff="1.0000000000000000"/>
      <sparseX i="466" alpha="-373008.08810567815" sparseCutoff="1.0000000000000000"/>
      <sparseX i="467" alpha="-96022.081002836057" sparseCutoff="1.0000000000000000"/>
      <sparseX i="468" alpha="-184573.66407882865" sparseCutoff="1.0000000000000000"/>
      <sparseX i="469" alpha="70652.392778914407" sparseCutoff="1.0000000000000000"/>
      <sparseX i="470" alpha="108854.68168416746" sparseCutoff="1.0000000000000000"/>
      <sparseX i="471" alpha="116517.72979046647" sparseCutoff="1.0000000000000000"/>
      <sparseX i="472" alpha="-517811.90472795768" sparseCutoff="1.0000000000000000"/>
      <sparseX i="473" alpha="-38601.095427731649" sparseCutoff="1.0000000000000000"/>
      <sparseX i="474" alpha="27026.562808679715" sparseCutoff="1.0000000000000000"/>
      <sparseX i="475" alpha="14471.837582301485" sparseCutoff="1.0000000000000000"/>
      <sparseX i="476" alpha="6879.2912594183208" sparseCutoff="1.0000000000000000"/>
      <sparseX i="477" alpha="86878.752663309249" sparseCutoff="1.0000000000000000"/>
      <sparseX i="478" alpha="-4670.7312518568724" sparseCutoff="1.0000000000000000"/>
      <sparseX i="479" alpha="-3823.9944776772622" sparseCutoff="1.0000000000000000"/>
      <sparseX i="480" alpha="699837.39604283345" sparseCutoff="1.0000000000000000"/>
      <sparseX i="481" alpha="-44555.464773218453" sparseCutoff="1.0000000000000000"/>
      <sparseX i="482" alpha="219628.21272427076" sparseCutoff="1.0000000000000000"/>
      <sparseX i="483" alpha="60852.486171457320" sparseCutoff="1.0000000000000000"/>
      <sparseX i="484" alpha="-437697.05363316456" sparseCutoff="1.0000000000000000"/>
      <sparseX i="485" alpha="13429.978106269738" sparseCutoff="1.0000000000000000"/>
      <sparseX i="486" alpha="-26876.188078303894" sparseCutoff="1.0000000000000000"/>
      <sparseX i="487" alpha="59094.948241990256" sparseCutoff="1.0000000000000000"/>
      <sparseX i="488" alpha="39773.163918001723" sparseCutoff="1.0000000000000000"/>
      <sparseX i="489" alpha="-28158.045843646341" sparseCutoff="1.0000000000000000"/>
      <sparseX i="490" alpha="90243.307211734471" sparseCutoff="1.0000000000000000"/>
      <sparseX i="491" alpha="-15382.649431406609" sparseCutoff="1.0000000000000000"/>
      <sparseX i="492" alpha="160086.74062696617" sparseCutoff="1.0000000000000000"/>
      <sparseX i="493" alpha="75211.087432514512" sparseCutoff="1.0000000000000000"/>
      <sparseX i="494" alpha="-320918.33592873346" sparseCutoff="1.0000000000000000"/>
      <sparseX i="495" alpha="100719.10852418626" sparseCutoff="1.0000000000000000"/>
      <sparseX i="496" alpha="-245268.76852664005" sparseCutoff="1.0000000000000000"/>
      <sparseX i="497" alpha="478698.32003397890" sparseCutoff="1.0000000000000000"/>
      <sparseX i="498" alpha="303614.64863266319" sparseCutoff="1.0000000000000000"/>
      <sparseX i="499" alpha="22353.696493338357" sparseCutoff="1.0000000000000000"/>
      <sparseX i="500" alpha="-258767.29297643041" sparseCutoff="1.0000000000000000"/>
      <sparseX i="501" alpha="-46653.107515617623" sparseCutoff="1.0000000000000000"/>
      <sparseX i="502" alpha="129592.28199117421" sparseCutoff="1.0000000000000000"/>
      <sparseX i="503" alpha="16675.311549442631" sparseCutoff="1.0000000000000000"/>
      <sparseX i="504" alpha="-229905.26355822428" sparseCutoff="1.0000000000000000"/>
      <sparseX i="505" alpha="143450.07363372933" sparseCutoff="1.0000000000000000"/>
      <sparseX i="506" alpha="-436285.42624891928" sparseCutoff="1.0000000000000000"/>
      <sparseX i="507" alpha="50221.146593305253" sparseCutoff="1.0000000000000000"/>
      <sparseX i="508" alpha="-53523.497236988660" sparseCutoff="1.0000000000000000"/>
      <sparseX i="509" alpha="14040.304828647344" sparseCutoff="1.0000000000000000"/>
      <sparseX i="510" alpha="151000.68358279180" sparseCutoff="1.0000000000000000"/>
      <sparseX i="511" alpha="324581.38127774652" sparseCutoff="1.0000000000000000"/>
      <sparseX i="512" alpha="56859.748661618098" sparseCutoff="1.0000000000000000"/>
      <sparseX i="513" alpha="-288015.35918558209" sparseCutoff="1.0000000000000000"/>
      <sparseX i="514" alpha="-1060.4914300922021" sparseCutoff="1.0000000000000000"/>
      <sparseX i="515" alpha="-19931.192829040388" sparseCutoff="1.0000000000000000"/>
      <sparseX i="516" alpha="982.46196622255150" sparseCutoff="1.0000000000000000"/>
      <sparseX i="517" alpha="56585.652192263406" sparseCutoff="1.0000000000000000"/>
      <sparseX i="518" alpha="210900.72645186941" sparseCutoff="1.0000000000000000"/>
      <sparseX i="519" alpha="37111.944685000504" sparseCutoff="1.0000000000000000"/>
      <sparseX i="520" alpha="-15409.941635821191" sparseCutoff="1.0000000000000000"/>
      <sparseX i="521" alpha="18670.362671748520" sparseCutoff="1.0000000000000000"/>
      <sparseX i="522" alpha="-65247.377414868373" sparseCutoff="1.0000000000000000"/>
      <sparseX i="523" alpha="205987.80560201820" sparseCutoff="1.0000000000000000"/>
      <sparseX i="524" alpha="8417.9873395817704" sparseCutoff="1.0000000000000000"/>
      <sparseX i="525" alpha="1865.8335711957177" sparseCutoff="1.0000000000000000"/>
      <sparseX i="526" alpha="2668.0794475741973" sparseCutoff="1.0000000000000000"/>
      <sparseX i="527" alpha="9515.2237991856637" sparseCutoff="1.0000000000000000"/>
      <sparseX i="528" alpha="148771.49554157490" sparseCutoff="1.0000000000000000"/>
      <sparseX i="529" alpha="-16015.395832270349" sparseCutoff="1.0000000000000000"/>
      <sparseX i="530" alpha="5527.8365501225635" sparseCutoff="1.0000000000000000"/>
      <sparseX i="531" alpha="-5747.8008296541957" sparseCutoff="1.0000000000000000"/>
      <sparseX i="532" alpha="9313.7479468891033" sparseCutoff="1.0000000000000000"/>
      <sparseX i="533" alpha="-2682.1451258056272" sparseCutoff="1.0000000000000000"/>
      <sparseX i="534" alpha="29929.974324825595" sparseCutoff="1.0000000000000000"/>
      <sparseX i="535" alpha="-33659.548298885864" sparseCutoff="1.0000000000000000"/>
      <sparseX i="536" alpha="459433.97630308056" sparseCutoff="1.0000000000000000"/>
      <sparseX i="537" alpha="12651.380974680882" sparseCutoff="1.0000000000000000"/>
      <sparseX i="538" alpha="-149121.93267515887" sparseCutoff="1.0000000000000000"/>
      <sparseX i="539" alpha="139830.28947636590" sparseCutoff="1.0000000000000000"/>
      <sparseX i="540" alpha="-83614.384333451904" sparseCutoff="1.0000000000000000"/>
      <sparseX i="541" alpha="287583.93252537987" sparseCutoff="1.0000000000000000"/>
      <sparseX i="542" alpha="-1051926.7717178620" sparseCutoff="1.0000000000000000"/>
      <sparseX i="543" alpha="8088.1166250553288" sparseCutoff="1.0000000000000000"/>
      <sparseX i="544" alpha="-9246.7316985292564" sparseCutoff="1.0000000000000000"/>
      <sparseX i="545" alpha="-249109.82041242704" sparseCutoff="1.0000000000000000"/>
      <sparseX i="546" alpha="-5337.5113638937655" sparseCutoff="1.0000000000000000"/>
      <sparseX i="547" alpha="-47699.749022225020" sparseCutoff="1.0000000000000000"/>
      <sparseX i="548" alpha="63935.190893483217" sparseCutoff="1.0000000000000000"/>
      <sparseX i="549" alpha="225240.42978128113" sparseCutoff="1.0000000000000000"/>
      <sparseX i="550" alpha="10949.923588553416" sparseCutoff="1.0000000000000000"/>
      <sparseX i="551" alpha="20492.009562237225" sparseCutoff="1.0000000000000000"/>
      <sparseX i="552" alpha="-134437.31482221177" sparseCutoff="1.0000000000000000"/>
      <sparseX i="553" alpha="208840.48452869360" sparseCutoff="1.0000000000000000"/>
      <sparseX i="554" alpha="-114563.62863348571" sparseCutoff="1.0000000000000000"/>
      <sparseX i="555" alpha="304668.37203419826" sparseCutoff="1.0000000000000000"/>
      <sparseX i="556" alpha="9703.4544569213449" sparseCutoff="1.0000000000000000"/>
      <sparseX i="557" alpha="157087.82924806813" sparseCutoff="1.0000000000000000"/>
      <sparseX i="558" alpha="68506.425154928351" sparseCutoff="1.0000000000000000"/>
      <sparseX i="559" alpha="-13000.250349753089" sparseCutoff="1.0000000000000000"/>
      <sparseX i="560" alpha="-8519.7396542190527" sparseCutoff="1.0000000000000000"/>
      <sparseX i="561" alpha="-22874.139374780898" sparseCutoff="1.0000000000000000"/>
      <sparseX i="562" alpha="172497.70847679474" sparseCutoff="1.0000000000000000"/>
      <sparseX i="563" alpha="-228946.81825543678" sparseCutoff="1.0000000000000000"/>
      <sparseX i="564" alpha="-102027.05353956498" sparseCutoff="1.0000000000000000"/>
      <sparseX i="565" alpha="85519.732395417173" sparseCutoff="1.0000000000000000"/>
      <sparseX i="566" alpha="265527.37440323655" sparseCutoff="1.0000000000000000"/>
      <sparseX i="567" alpha="-15635.497042405703" sparseCutoff="1.0000000000000000"/>
      <sparseX i="568" alpha="-151352.58374116570" sparseCutoff="1.0000000000000000"/>
      <sparseX i="569" alpha="-387849.15070247959" sparseCutoff="1.0000000000000000"/>
      <sparseX i="570" alpha="-179663.07825075608" sparseCutoff="1.0000000000000000"/>
      <sparseX i="571" alpha="-39324.282946324332" sparseCutoff="1.0000000000000000"/>
      <sparseX i="572" alpha="100813.22390033788" sparseCutoff="1.0000000000000000"/>
      <sparseX i="573" alpha="-66172.483792761166" sparseCutoff="1.0000000000000000"/>
      <sparseX i="574" alpha="-50043.007045947219" sparseCutoff="1.0000000000000000"/>
      <sparseX i="575" alpha="6001.8989432735289" sparseCutoff="1.0000000000000000"/>
      <sparseX i="576" alpha="40083.752600303706" sparseCutoff="1.0000000000000000"/>
      <sparseX i="577" alpha="-840696.47076437681" sparseCutoff="1.0000000000000000"/>
      <sparseX i="578" alpha="-40532.152669201292" sparseCutoff="1.0000000000000000"/>
      <sparseX i="579" alpha="-111703.25478062680" sparseCutoff="1.0000000000000000"/>
      <sparseX i="580" alpha="85322.140589074479" sparseCutoff="1.0000000000000000"/>
      <sparseX i="581" alpha="-295688.41485249187" sparseCutoff="1.0000000000000000"/>
      <sparseX i="582" alpha="107991.30023033789" sparseCutoff="1.0000000000000000"/>
      <sparseX i="583" alpha="157277.66527439520" sparseCutoff="1.0000000000000000"/>
      <sparseX i="584" alpha="52070.931695335115" sparseCutoff="1.0000000000000000"/>
      <sparseX i="585" alpha="4897.2756159428336" sparseCutoff="1.0000000000000000"/>
      <sparseX i="586" alpha="92290.594951229461" sparseCutoff="1.0000000000000000"/>
      <sparseX i="587" alpha="76839.896738696785" sparseCutoff="1.0000000000000000"/>
      <sparseX i="588" alpha="-46671.025096500234" sparseCutoff="1.0000000000000000"/>
      <sparseX i="589" alpha="-109797.81928922300" sparseCutoff="1.0000000000000000"/>
      <sparseX i="590" alpha="-1838.4016566948421" sparseCutoff="1.0000000000000000"/>
      <sparseX i="591" alpha="-59860.014424233734" sparseCutoff="1.0000000000000000"/>
      <sparseX i="592" alpha="242327.56937869306" sparseCutoff="1.0000000000000000"/>
      <sparseX i="593" alpha="-377481.78261719900" sparseCutoff="1.0000000000000000"/>
      <sparseX i="594" alpha="-206647.24792885108" sparseCutoff="1.0000000000000000"/>
      <sparseX i="595" alpha="125177.22326232737" sparseCutoff="1.0000000000000000"/>
      <sparseX i="596" alpha="-7775.0826706398784" sparseCutoff="1.0000000000000000"/>
      <sparseX i="597" alpha="-3944.8369019815736" sparseCutoff="1.0000000000000000"/>
      <sparseX i="598" alpha="10303.587219793109" sparseCutoff="1.0000000000000000"/>
      <sparseX i="599" alpha="24607.386075168451" sparseCutoff="1.0000000000000000"/>
      <sparseX i="600" alpha="2132.7743730189832" sparseCutoff="1.0000000000000000"/>
      <sparseX i="601" alpha="30132.667301834303" sparseCutoff="1.0000000000000000"/>
      <sparseX i="602" alpha="-288288.82511862909" sparseCutoff="1.0000000000000000"/>
      <sparseX i="603" alpha="-1271403.5001648716" sparseCutoff="1.0000000000000000"/>
      <sparseX i="604" alpha="559197.85373993579" sparseCutoff="1.0000000000000000"/>
      <sparseX i="605" alpha="-101348.66629024384" sparseCutoff="1.0000000000000000"/>
      <sparseX i="606" alpha="-362869.54306620365" sparseCutoff="1.0000000000000000"/>
      <sparseX i="607" alpha="278224.88486278302" sparseCutoff="1.0000000000000000"/>
      <sparseX i="608" alpha="586751.47911296331" sparseCutoff="1.0000000000000000"/>
      <sparseX i="609" alpha="710568.03111303155" sparseCutoff="1.0000000000000000"/>
      <sparseX i="610" alpha="145718.73556430120" sparseCutoff="1.0000000000000000"/>
      <sparseX i="611" alpha="53675.650087305730" sparseCutoff="1.0000000000000000"/>
      <sparseX i="612" alpha="-356654.28048337426" sparseCutoff="1.0000000000000000"/>
      <sparseX i="613" alpha="382641.20889251790" sparseCutoff="1.0000000000000000"/>
      <sparseX i="614" alpha="23337.710109525215" sparseCutoff="1.0000000000000000"/>
      <sparseX i="615" alpha="-260782.62245045084" sparseCutoff="1.0000000000000000"/>
      <sparseX i="616" alpha="-186409.91115486482" sparseCutoff="1.0000000000000000"/>
      <sparseX i="617" alpha="-254514.92714162715" sparseCutoff="1.0000000000000000"/>
      <sparseX i="618" alpha="125313.46330255372" sparseCutoff="1.0000000000000000"/>
      <sparseX i="619" alpha="-96273.916910976550" sparseCutoff="1.0000000000000000"/>
      <sparseX i="620" alpha="-340806.55968999164" sparseCutoff="1.0000000000000000"/>
      <sparseX i="621" alpha="77462.518170069452" sparseCutoff="1.0000000000000000"/>
      <sparseX i="622" alpha="125090.07617316632" sparseCutoff="1.0000000000000000"/>
      <sparseX i="623" alpha="4150.1955896890695" sparseCutoff="1.0000000000000000"/>
      <sparseX i="624" alpha="9785.8606096086460" sparseCutoff="1.0000000000000000"/>
      <sparseX i="625" alpha="282029.53499114665" sparseCutoff="1.0000000000000000"/>
      <sparseX i="626" alpha="-161431.14747320677" sparseCutoff="1.0000000000000000"/>
      <sparseX i="627" alpha="433093.80256316438" sparseCutoff="1.0000000000000000"/>
      <sparseX i="628" alpha="-131810.89694604574" sparseCutoff="1.0000000000000000"/>
      <sparseX i="629" alpha="-189622.63563377585" sparseCutoff="1.0000000000000000"/>
      <sparseX i="630" alpha="43275.460522715126" sparseCutoff="1.0000000000000000"/>
      <sparseX i="631" alpha="-533849.71099060506" sparseCutoff="1.0000000000000000"/>
      <sparseX i="632" alpha="51153.463482278996" sparseCutoff="1.0000000000000000"/>
      <sparseX i="633" alpha="-188377.72396040178" sparseCutoff="1.0000000000000000"/>
      <sparseX i="634" alpha="191391.05169160687" sparseCutoff="1.0000000000000000"/>
      <sparseX i="635" alpha="72613.419184887025" sparseCutoff="1.0000000000000000"/>
      <sparseX i="636" alpha="-337954.40132698917" sparseCutoff="1.0000000000000000"/>
      <sparseX i="637" alpha="90721.426910616443" sparseCutoff="1.0000000000000000"/>
      <sparseX i="638" alpha="-171413.80797069700" sparseCutoff="1.0000000000000000"/>
      <sparseX i="639" alpha="-125347.99402307889" sparseCutoff="1.0000000000000000"/>
      <sparseX i="640" alpha="-185176.09929721072" sparseCutoff="1.0000000000000000"/>
      <sparseX i="641" alpha="-142011.03263909390" sparseCutoff="1.0000000000000000"/>
      <sparseX i="642" alpha="162548.51743272459" sparseCutoff="1.0000000000000000"/>
      <sparseX i="643" alpha="219872.44920003545" sparseCutoff="1.0000000000000000"/>
      <sparseX i="644" alpha="147368.53963875124" sparseCutoff="1.0000000000000000"/>
      <sparseX i="645" alpha="209488.99455289866" sparseCutoff="1.0000000000000000"/>
      <sparseX i="646" alpha="223836.74225981275" sparseCutoff="1.0000000000000000"/>
      <sparseX i="647" alpha="-786715.90013238369" sparseCutoff="1.0000000000000000"/>
      <sparseX i="648" alpha="-3221.4175585744333" sparseCutoff="1.0000000000000000"/>
      <sparseX i="649" alpha="46506.384454645973" sparseCutoff="1.0000000000000000"/>
      <sparseX i="650" alpha="84461.715383370189" sparseCutoff="1.0000000000000000"/>
      <sparseX i="651" alpha="-19009.559408288038" sparseCutoff="1.0000000000000000"/>
      <sparseX i="652" alpha="35847.166112335675" sparseCutoff="1.0000000000000000"/>
      <sparseX i="653" alpha="-12078.369186834434" sparseCutoff="1.0000000000000000"/>
      <sparseX i="654" alpha="-66152.975054300186" sparseCutoff="1.0000000000000000"/>
      <sparseX i="655" alpha="49769.300722512817" sparseCutoff="1.0000000000000000"/>
      <sparseX i="656" alpha="351615.87405594904" sparseCutoff="1.0000000000000000"/>
      <sparseX i="657" alpha="-1153601.3296204533" sparseCutoff="1.0000000000000000"/>
      <sparseX i="658" alpha="1215143.6021545464" sparseCutoff="1.0000000000000000"/>
      <sparseX i="659" alpha="267028.06848044513" sparseCutoff="1.0000000000000000"/>
      <sparseX i="660" alpha="72546.401924731908" sparseCutoff="1.0000000000000000"/>
      <sparseX i="661" alpha="-77870.174484493793" sparseCutoff="1.0000000000000000"/>
      <sparseX i="662" alpha="325355.29550652544" sparseCutoff="1.0000000000000000"/>
      <sparseX i="663" alpha="266105.14565473882" sparseCutoff="1.0000000000000000"/>
      <sparseX i="664" alpha="31333.893160385880" sparseCutoff="1.0000000000000000"/>
      <sparseX i="665" alpha="-36901.977338492405" sparseCutoff="1.0000000000000000"/>
      <sparseX i="666" alpha="168092.99392907030" sparseCutoff="1.0000000000000000"/>
      <sparseX i="667" alpha="16118.144039202283" sparseCutoff="1.0000000000000000"/>
      <sparseX i="668" alpha="28454.787007520594" sparseCutoff="1.0000000000000000"/>
      <sparseX i="669" alpha="198249.68206229477" sparseCutoff="1.0000000000000000"/>
      <sparseX i="670" alpha="-1531.6333846599498" sparseCutoff="1.0000000000000000"/>
      <sparseX i="671" alpha="-287327.45152585302" sparseCutoff="1.0000000000000000"/>
      <sparseX i="672" alpha="61567.115366892009" sparseCutoff="1.0000000000000000"/>
      <sparseX i="673" alpha="-29014.786272808025" sparseCutoff="1.0000000000000000"/>
      <sparseX i="674" alpha="140191.52243606639" sparseCutoff="1.0000000000000000"/>
      <sparseX i="675" alpha="551058.35621476872" sparseCutoff="1.0000000000000000"/>
      <sparseX i="676" alpha="158246.46495887212" sparseCutoff="1.0000000000000000"/>
      <sparseX i="677" alpha="-57094.945365452651" sparseCutoff="1.0000000000000000"/>
      <sparseX i="678" alpha="3320.6459799177214" sparseCutoff="1.0000000000000000"/>
      <sparseX i="679" alpha="54785.717033686284" sparseCutoff="1.0000000000000000"/>
      <sparseX i="680" alpha="-2362.0546719533354" sparseCutoff="1.0000000000000000"/>
      <sparseX i="681" alpha="-17347.974628971278" sparseCutoff="1.0000000000000000"/>
      <sparseX i="682" alpha="-376944.59573760652" sparseCutoff="1.0000000000000000"/>
      <sparseX i="683" alpha="-427453.71208874625" sparseCutoff="1.0000000000000000"/>
      <sparseX i="684" alpha="101579.63200088980" sparseCutoff="1.0000000000000000"/>
      <sparseX i="685" alpha="105720.00680486762" sparseCutoff="1.0000000000000000"/>
      <sparseX i="686" alpha="381527.70270092180" sparseCutoff="1.0000000000000000"/>
      <sparseX i="687" alpha="-31013.580091421783" sparseCutoff="1.0000000000000000"/>
      <sparseX i="688" alpha="-2547.9491311592892" sparseCutoff="1.0000000000000000"/>
      <sparseX i="689" alpha="5497.7559596040737" sparseCutoff="1.0000000000000000"/>
      <sparseX i="690" alpha="3510.9407167200820" sparseCutoff="1.0000000000000000"/>
      <sparseX i="691" alpha="-23854.648489577903" sparseCutoff="1.0000000000000000"/>
      <sparseX i="692" alpha="5993.1136145772225" sparseCutoff="1.0000000000000000"/>
      <sparseX i="693" alpha="186897.01670136605" sparseCutoff="1.0000000000000000"/>
      <sparseX i="694" alpha="-145670.64679599134" sparseCutoff="1.0000000000000000"/>
      <sparseX i="695" alpha="35081.616733012357" sparseCutoff="1.0000000000000000"/>
      <sparseX i="696" alpha="11943.035492682357" sparseCutoff="1.0000000000000000"/>
      <sparseX i="697" alpha="-59209.961123170469" sparseCutoff="1.0000000000000000"/>
      <sparseX i="698" alpha="-8967.8742554031342" sparseCutoff="1.0000000000000000"/>
      <sparseX i="699" alpha="-176828.39311086308" sparseCutoff="1.0000000000000000"/>
      <sparseX i="700" alpha="127582.10137485614" sparseCutoff="1.0000000000000000"/>
      <sparseX i="701" alpha="-85135.572059662387" sparseCutoff="1.0000000000000000"/>
      <sparseX i="702" alpha="18639.198950491606" sparseCutoff="1.0000000000000000"/>
      <sparseX i="703" alpha="-67626.165929284267" sparseCutoff="1.0000000000000000"/>
      <sparseX i="704" alpha="2074.4141691003597" sparseCutoff="1.0000000000000000"/>
      <sparseX i="705" alpha="432772.04542320751" sparseCutoff="1.0000000000000000"/>
      <sparseX i="706" alpha="18990.698643434473" sparseCutoff="1.0000000000000000"/>
      <sparseX i="707" alpha="114048.44405506848" sparseCutoff="1.0000000000000000"/>
      <sparseX i="708" alpha="214701.07935640510" sparseCutoff="1.0000000000000000"/>
      <sparseX i="709" alpha="368517.06665790727" sparseCutoff="1.0000000000000000"/>
      <sparseX i="710" alpha="537073.39304429328" sparseCutoff="1.0000000000000000"/>
      <sparseX i="711" alpha="-376767.31929868192" sparseCutoff="1.0000000000000000"/>
      <sparseX i="712" alpha="147569.52110479001" sparseCutoff="1.0000000000000000"/>
      <sparseX i="713" alpha="90815.912150359974" sparseCutoff="1.0000000000000000"/>
      <sparseX i="714" alpha="-620100.96272116853" sparseCutoff="1.0000000000000000"/>
      <sparseX i="715" alpha="-6475.2505825909411" sparseCutoff="1.0000000000000000"/>
      <sparseX i="716" alpha="69312.196169165065" sparseCutoff="1.0000000000000000"/>
      <sparseX i="717" alpha="-291907.80302725517" sparseCutoff="1.0000000000000000"/>
      <sparseX i="718" alpha="22937.201940170617" sparseCutoff="1.0000000000000000"/>
      <sparseX i="719" alpha="178357.64325439854" sparseCutoff="1.0000000000000000"/>
      <sparseX i="720" alpha="-434626.99099872285" sparseCutoff="1.0000000000000000"/>
      <sparseX i="721" alpha="-18326.852064419963" sparseCutoff="1.0000000000000000"/>
      <sparseX i="722" alpha="48136.542525751385" sparseCutoff="1.0000000000000000"/>
      <sparseX i="723" alpha="-288825.91835200024" sparseCutoff="1.0000000000000000"/>
      <sparseX i="724" alpha="-135723.30414082590" sparseCutoff="1.0000000000000000"/>
      <sparseX i="725" alpha="-77425.930696158815" sparseCutoff="1.0000000000000000"/>
      <sparseX i="726" alpha="56541.202341148768" sparseCutoff="1.0000000000000000"/>
      <sparseX i="727" alpha="152251.89778235531" sparseCutoff="1.0000000000000000"/>
      <sparseX i="728" alpha="268710.58907952689" sparseCutoff="1.0000000000000000"/>
      <sparseX i="729" alpha="-87458.729477397152" sparseCutoff="1.0000000000000000"/>
      <sparseX i="730" alpha="-8622.7366399557832" sparseCutoff="1.0000000000000000"/>
      <sparseX i="731" alpha="293917.19865042809" sparseCutoff="1.0000000000000000"/>
      <sparseX i="732" alpha="76651.515458538575" sparseCutoff="1.0000000000000000"/>
      <sparseX i="733" alpha="-30103.504502929816" sparseCutoff="1.0000000000000000"/>
      <sparseX i="734" alpha="-48187.512416196092" sparseCutoff="1.0000000000000000"/>
      <sparseX i="735" alpha="-73822.282983897414" sparseCutoff="1.0000000000000000"/>
      <sparseX i="736" alpha="96233.415382808147" sparseCutoff="1.0000000000000000"/>
      <sparseX i="737" alpha="-32841.017887096030" sparseCutoff="1.0000000000000000"/>
      <sparseX i="738" alpha="-113989.10007777633" sparseCutoff="1.0000000000000000"/>
      <sparseX i="739" alpha="4970.2538821655680" sparseCutoff="1.0000000000000000"/>
      <sparseX i="740" alpha="-413476.80649945280" sparseCutoff="1.0000000000000000"/>
      <sparseX i="741" alpha="-148066.52821132849" sparseCutoff="1.0000000000000000"/>
      <sparseX i="742" alpha="19557.355307778987" sparseCutoff="1.0000000000000000"/>
      <sparseX i="743" alpha="-23477.541109265076" sparseCutoff="1.0000000000000000"/>
      <sparseX i="744" alpha="-129737.99525889133" sparseCutoff="1.0000000000000000"/>
      <sparseX i="745" alpha="-60641.263448761973" sparseCutoff="1.0000000000000000"/>
      <sparseX i="746" alpha="167346.53879141409" sparseCutoff="1.0000000000000000"/>
      <sparseX i="747" alpha="111863.39934183021" sparseCutoff="1.0000000000000000"/>
      <sparseX i="748" alpha="-100221.00593683220" sparseCutoff="1.0000000000000000"/>
      <sparseX i="749" alpha="-37350.313218847732" sparseCutoff="1.0000000000000000"/>
      <sparseX i="750" alpha="18647.593244119016" sparseCutoff="1.0000000000000000"/>
      <sparseX i="751" alpha="-14677.676840888538" sparseCutoff="1.0000000000000000"/>
      <sparseX i="752" alpha="-56085.362958327700" sparseCutoff="1.0000000000000000"/>
      <sparseX i="753" alpha="7217.1200840610327" sparseCutoff="1.0000000000000000"/>
      <sparseX i="754" alpha="3928.4146080768292" sparseCutoff="1.0000000000000000"/>
      <sparseX i="755" alpha="-17925.643518020112" sparseCutoff="1.0000000000000000"/>
      <sparseX i="756" alpha="-101834.29675083265" sparseCutoff="1.0000000000000000"/>
      <sparseX i="757" alpha="272701.28682349058" sparseCutoff="1.0000000000000000"/>
      <sparseX i="758" alpha="-18444.349805627808" sparseCutoff="1.0000000000000000"/>
      <sparseX i="759" alpha="32206.388818124327" sparseCutoff="1.0000000000000000"/>
      <sparseX i="760" alpha="31238.237928899242" sparseCutoff="1.0000000000000000"/>
      <sparseX i="761" alpha="-1468.1601967076067" sparseCutoff="1.0000000000000000"/>
      <sparseX i="762" alpha="70470.300340844187" sparseCutoff="1.0000000000000000"/>
      <sparseX i="763" alpha="62413.432197661103" sparseCutoff="1.0000000000000000"/>
      <sparseX i="764" alpha="-229854.74119403583" sparseCutoff="1.0000000000000000"/>
      <sparseX i="765" alpha="-372273.56920785090" sparseCutoff="1.0000000000000000"/>
      <sparseX i="766" alpha="-272091.24654660479" sparseCutoff="1.0000000000000000"/>
      <sparseX i="767" alpha="-815197.36267954146" sparseCutoff="1.0000000000000000"/>
      <sparseX i="768" alpha="649154.60668123374" sparseCutoff="1.0000000000000000"/>
      <sparseX i="769" alpha="629048.36878877121" sparseCutoff="1.0000000000000000"/>
      <sparseX i="770" alpha="40673.550833474685" sparseCutoff="1.0000000000000000"/>
      <sparseX i="771" alpha="360604.07847057277" sparseCutoff="1.0000000000000000"/>
      <sparseX i="772" alpha="102688.51384625274" sparseCutoff="1.0000000000000000"/>
      <sparseX i="773" alpha="-65555.515352913673" sparseCutoff="1.0000000000000000"/>
      <sparseX i="774" alpha="187713.20947287866" sparseCutoff="1.0000000000000000"/>
      <sparseX i="775" alpha="87510.752252186649" sparseCutoff="1.0000000000000000"/>
      <sparseX i="776" alpha="-1726.0001987650624" sparseCutoff="1.0000000000000000"/>
      <sparseX i="777" alpha="-46361.302136672544" sparseCutoff="1.0000000000000000"/>
      <sparseX i="778" alpha="725334.14298130525" sparseCutoff="1.0000000000000000"/>
      <sparseX i="779" alpha="-43968.292873017046" sparseCutoff="1.0000000000000000"/>
      <sparseX i="780" alpha="50875.795940493910" sparseCutoff="1.0000000000000000"/>
      <sparseX i="781" alpha="184746.81037183449" sparseCutoff="1.0000000000000000"/>
      <sparseX i="782" alpha="21848.086678878986" sparseCutoff="1.0000000000000000"/>
      <sparseX i="783" alpha="-87041.759470434146" sparseCutoff="1.0000000000000000"/>
      <sparseX i="784" alpha="60538.726654989310" sparseCutoff="1.0000000000000000"/>
      <sparseX i="785" alpha="87050.737342577631" sparseCutoff="1.0000000000000000"/>
      <sparseX i="786" alpha="-303490.02918933035" sparseCutoff="1.0000000000000000"/>
      <sparseX i="787" alpha="-657204.87740597210" sparseCutoff="1.0000000000000000"/>
      <sparseX i="788" alpha="489038.11670097435" sparseCutoff="1.0000000000000000"/>
      <sparseX i="789" alpha="358961.15378368349" sparseCutoff="1.0000000000000000"/>
      <sparseX i="790" alpha="-93857.302227922031" sparseCutoff="1.0000000000000000"/>
      <sparseX i="791" alpha="44066.529296212953" sparseCutoff="1.0000000000000000"/>
      <sparseX i="792" alpha="-330721.11297050514" sparseCutoff="1.0000000000000000"/>
      <sparseX i="793" alpha="221701.36248629465" sparseCutoff="1.0000000000000000"/>
      <sparseX i="794" alpha="-436029.85983191768" sparseCutoff="1.0000000000000000"/>
      <sparseX i="795" alpha="-637240.29135347228" sparseCutoff="1.0000000000000000"/>
      <sparseX i="796" alpha="5937.5977963319219" sparseCutoff="1.0000000000000000"/>
      <sparseX i="797" alpha="-121427.71193133258" sparseCutoff="1.0000000000000000"/>
      <sparseX i="798" alpha="-333648.16095964977" sparseCutoff="1.0000000000000000"/>
      <sparseX i="799" alpha="518884.23978568043" sparseCutoff="1.0000000000000000"/>
      <sparseX i="800" alpha="-30521.532222597609" sparseCutoff="1.0000000000000000"/>
      <sparseX i="801" alpha="-54667.361444386770" sparseCutoff="1.0000000000000000"/>
      <sparseX i="802" alpha="-83504.920456246356" sparseCutoff="1.0000000000000000"/>
      <sparseX i="803" alpha="-1202635.6183200427" sparseCutoff="1.0000000000000000"/>
      <sparseX i="804" alpha="-84572.918878819895" sparseCutoff="1.0000000000000000"/>
      <sparseX i="805" alpha="-38749.063920322427" sparseCutoff="1.0000000000000000"/>
      <sparseX i="806" alpha="24147.577636596299" sparseCutoff="1.0000000000000000"/>
      <sparseX i="807" alpha="-93134.996042270170" sparseCutoff="1.0000000000000000"/>
      <sparseX i="808" alpha="-116620.06411066225" sparseCutoff="1.0000000000000000"/>
      <sparseX i="809" alpha="-105090.14040634499" sparseCutoff="1.0000000000000000"/>
      <sparseX i="810" alpha="69438.452592992355" sparseCutoff="1.0000000000000000"/>
      <sparseX i="811" alpha="13414.587797149763" sparseCutoff="1.0000000000000000"/>
      <sparseX i="812" alpha="78565.708487411699" sparseCutoff="1.0000000000000000"/>
      <sparseX i="813" alpha="-27460.469167476713" sparseCutoff="1.0000000000000000"/>
      <sparseX i="814" alpha="110934.85109782772" sparseCutoff="1.0000000000000000"/>
      <sparseX i="815" alpha="55722.077195214624" sparseCutoff="1.0000000000000000"/>
      <sparseX i="816" alpha="-102148.88747888476" sparseCutoff="1.0000000000000000"/>
      <sparseX i="817" alpha="-5418.8815524351994" sparseCutoff="1.0000000000000000"/>
      <sparseX i="818" alpha="-40824.701017038380" sparseCutoff="1.0000000000000000"/>
      <sparseX i="819" alpha="-52294.701578349224" sparseCutoff="1.0000000000000000"/>
      <sparseX i="820" alpha="-33843.545001677856" sparseCutoff="1.0000000000000000"/>
      <sparseX i="821" alpha="-74828.640898905229" sparseCutoff="1.0000000000000000"/>
      <sparseX i="822" alpha="-8877.4933663215761" sparseCutoff="1.0000000000000000"/>
      <sparseX i="823" alpha="120682.31816003467" sparseCutoff="1.0000000000000000"/>
      <sparseX i="824" alpha="-20361.056788253038" sparseCutoff="1.0000000000000000"/>
      <sparseX i="825" alpha="-60210.541622246528" sparseCutoff="1.0000000000000000"/>
      <sparseX i="826" alpha="-86729.294831871157" sparseCutoff="1.0000000000000000"/>
      <sparseX i="827" alpha="-19439.882207372233" sparseCutoff="1.0000000000000000"/>
      <sparseX i="828" alpha="19325.285888028844" sparseCutoff="1.0000000000000000"/>
      <sparseX i="829" alpha="40292.354104994949" sparseCutoff="1.0000000000000000"/>
      <sparseX i="830" alpha="-54327.924776082909" sparseCutoff="1.0000000000000000"/>
